{"learner":{"attributes":{"scikit_learn":"{\"_estimator_type\": \"regressor\"}"},"feature_names":["hour","day_of_week","day_of_month","is_weekend","lag_1","lag_24","rolling_mean_3","rolling_mean_24"],"feature_types":["int","int","int","int","float","float","float","float"],"gradient_booster":{"model":{"cats":{"enc":[],"feature_segments":[],"sorted_idx":[]},"gbtree_model_param":{"num_parallel_tree":"1","num_trees":"500"},"iteration_indptr":[0,1,2,3,4,5,6,7,8,9,10,11,12,13,14,15,16,17,18,19,20,21,22,23,24,25,26,27,28,29,30,31,32,33,34,35,36,37,38,39,40,41,42,43,44,45,46,47,48,49,50,51,52,53,54,55,56,57,58,59,60,61,62,63,64,65,66,67,68,69,70,71,72,73,74,75,76,77,78,79,80,81,82,83,84,85,86,87,88,89,90,91,92,93,94,95,96,97,98,99,100,101,102,103,104,105,106,107,108,109,110,111,112,113,114,115,116,117,118,119,120,121,122,123,124,125,126,127,128,129,130,131,132,133,134,135,136,137,138,139,140,141,142,143,144,145,146,147,148,149,150,151,152,153,154,155,156,157,158,159,160,161,162,163,164,165,166,167,168,169,170,171,172,173,174,175,176,177,178,179,180,181,182,183,184,185,186,187,188,189,190,191,192,193,194,195,196,197,198,199,200,201,202,203,204,205,206,207,208,209,210,211,212,213,214,215,216,217,218,219,220,221,222,223,224,225,226,227,228,229,230,231,232,233,234,235,236,237,238,239,240,241,242,243,244,245,246,247,248,249,250,251,252,253,254,255,256,257,258,259,260,261,262,263,264,265,266,267,268,269,270,271,272,273,274,275,276,277,278,279,280,281,282,283,284,285,286,287,288,289,290,291,292,293,294,295,296,297,298,299,300,301,302,303,304,305,306,307,308,309,310,311,312,313,314,315,316,317,318,319,320,321,322,323,324,325,326,327,328,329,330,331,332,333,334,335,336,337,338,339,340,341,342,343,344,345,346,347,348,349,350,351,352,353,354,355,356,357,358,359,360,361,362,363,364,365,366,367,368,369,370,371,372,373,374,375,376,377,378,379,380,381,382,383,384,385,386,387,388,389,390,391,392,393,394,395,396,397,398,399,400,401,402,403,404,405,406,407,408,409,410,411,412,413,414,415,416,417,418,419,420,421,422,423,424,425,426,427,428,429,430,431,432,433,434,435,436,437,438,439,440,441,442,443,444,445,446,447,448,449,450,451,452,453,454,455,456,457,458,459,460,461,462,463,464,465,466,467,468,469,470,471,472,473,474,475,476,477,478,479,480,481,482,483,484,485,486,487,488,489,490,491,492,493,494,495,496,497,498,499,500],"tree_info":[0,0,0,0,0,0,0,0,0,0,0,0,0,0,0,0,0,0,0,0,0,0,0,0,0,0,0,0,0,0,0,0,0,0,0,0,0,0,0,0,0,0,0,0,0,0,0,0,0,0,0,0,0,0,0,0,0,0,0,0,0,0,0,0,0,0,0,0,0,0,0,0,0,0,0,0,0,0,0,0,0,0,0,0,0,0,0,0,0,0,0,0,0,0,0,0,0,0,0,0,0,0,0,0,0,0,0,0,0,0,0,0,0,0,0,0,0,0,0,0,0,0,0,0,0,0,0,0,0,0,0,0,0,0,0,0,0,0,0,0,0,0,0,0,0,0,0,0,0,0,0,0,0,0,0,0,0,0,0,0,0,0,0,0,0,0,0,0,0,0,0,0,0,0,0,0,0,0,0,0,0,0,0,0,0,0,0,0,0,0,0,0,0,0,0,0,0,0,0,0,0,0,0,0,0,0,0,0,0,0,0,0,0,0,0,0,0,0,0,0,0,0,0,0,0,0,0,0,0,0,0,0,0,0,0,0,0,0,0,0,0,0,0,0,0,0,0,0,0,0,0,0,0,0,0,0,0,0,0,0,0,0,0,0,0,0,0,0,0,0,0,0,0,0,0,0,0,0,0,0,0,0,0,0,0,0,0,0,0,0,0,0,0,0,0,0,0,0,0,0,0,0,0,0,0,0,0,0,0,0,0,0,0,0,0,0,0,0,0,0,0,0,0,0,0,0,0,0,0,0,0,0,0,0,0,0,0,0,0,0,0,0,0,0,0,0,0,0,0,0,0,0,0,0,0,0,0,0,0,0,0,0,0,0,0,0,0,0,0,0,0,0,0,0,0,0,0,0,0,0,0,0,0,0,0,0,0,0,0,0,0,0,0,0,0,0,0,0,0,0,0,0,0,0,0,0,0,0,0,0,0,0,0,0,0,0,0,0,0,0,0,0,0,0,0,0,0,0,0,0,0,0,0,0,0,0,0,0,0,0,0,0,0,0,0,0,0,0,0,0,0,0,0,0,0,0,0,0,0,0,0,0,0,0,0,0,0,0,0,0,0,0,0,0,0,0,0,0,0,0,0,0,0,0,0,0,0,0,0,0,0,0,0,0,0,0,0,0,0,0],"trees":[{"base_weights":[-1.7324716E0,-2.879145E3,1.3467637E3,-2.8879536E3,1.0616415E3,1.2843922E3,1.1035801E2,-1.4443527E2,3.094029E1,4.9728513E2,8.185882E1,1.2201538E3,1.2961934E3,8.5634296E2,-1.9329615E1,8.3232495E2,1.2296244E3,1.4943533E3,1.2904435E3,-9.347107E-1,1.0350892E3,6.510897E2,1.0818698E3,8.5882666E2,1.237717E3,6.9454364E2,1.51754E3,1.1851376E3,1.3000927E3,6.3670387E1,2.2587053E1,6.480447E1,2.4479305E1,2.5233816E1,6.4015526E1,2.891163E1,7.209887E1,6.971738E1,6.0257965E1,3.7044628E0,5.8804462E1,6.967638E1,8.468336E1,6.7721115E1,5.56271E1,6.740718E1,6.437389E1],"categories":[],"categories_nodes":[],"categories_segments":[],"categories_sizes":[],"default_left":[0,0,0,0,0,0,0,0,0,0,0,0,0,0,0,0,0,0,0,0,0,0,0,0,0,0,0,0,0,0,0,0,0,0,0,0,0,0,0,0,0,0,0,0,0,0,0],"id":0,"left_children":[1,3,5,7,9,11,-1,-1,-1,13,-1,15,17,19,-1,21,23,25,27,-1,29,31,33,35,37,39,41,43,45,-1,-1,-1,-1,-1,-1,-1,-1,-1,-1,-1,-1,-1,-1,-1,-1,-1,-1],"loss_changes":[6.689041E10,1.9401933E8,6.270771E8,1.626112E7,3.408342E6,6.71744E6,0E0,0E0,0E0,2.8699605E6,0E0,5.279488E6,8.589312E6,9.578085E5,0E0,1.285564E6,3.956992E6,3.65632E6,7.58272E6,0E0,1.198625E5,2.282207E6,1.301016E6,5.547718E6,6.65728E6,2.6018575E6,3.013056E6,7.8944E6,3.243008E6,0E0,0E0,0E0,0E0,0E0,0E0,0E0,0E0,0E0,0E0,0E0,0E0,0E0,0E0,0E0,0E0,0E0,0E0],"parents":[2147483647,0,0,1,1,2,2,3,3,4,4,5,5,9,9,11,11,12,12,13,13,15,15,16,16,17,17,18,18,20,20,21,21,22,22,23,23,24,24,25,25,26,26,27,27,28,28],"right_children":[2,4,6,8,10,12,-1,-1,-1,14,-1,16,18,20,-1,22,24,26,28,-1,30,32,34,36,38,40,42,44,46,-1,-1,-1,-1,-1,-1,-1,-1,-1,-1,-1,-1,-1,-1,-1,-1,-1,-1],"split_conditions":[2.26E3,8E0,5.3839585E3,5.3839585E3,4.975E3,3.615E3,1.1035801E2,-1.4443527E2,3.094029E1,4.5866665E3,8.185882E1,2.9941667E3,9E0,1E1,-1.9329615E1,3.3E3,9E0,3.705E3,9.283333E2,-9.347107E-1,4.43E3,3.6166666E2,4E0,3.49E3,2.1183333E3,5.233333E2,5E0,4.4666666E2,4.22E3,6.3670387E1,2.2587053E1,6.480447E1,2.4479305E1,2.5233816E1,6.4015526E1,2.891163E1,7.209887E1,6.971738E1,6.0257965E1,3.7044628E0,5.8804462E1,6.967638E1,8.468336E1,6.7721115E1,5.56271E1,6.740718E1,6.437389E1],"split_indices":[5,0,7,7,6,5,0,0,0,6,0,7,0,0,0,5,0,5,6,0,6,6,1,7,6,6,1,6,5,0,0,0,0,0,0,0,0,0,0,0,0,0,0,0,0,0,0],"split_type":[0,0,0,0,0,0,0,0,0,0,0,0,0,0,0,0,0,0,0,0,0,0,0,0,0,0,0,0,0,0,0,0,0,0,0,0,0,0,0,0,0,0,0,0,0,0,0],"sum_hessian":[1.7237E4,5.5E3,1.1737E4,5.488E3,1.2E1,1.0946E4,7.91E2,5.487E3,1E0,7E0,5E0,1.715E3,9.231E3,5E0,2E0,4.3E1,1.672E3,2.53E2,8.978E3,1E0,4E0,2.7E1,1.6E1,3.8E1,1.634E3,8E0,2.45E2,7.64E2,8.214E3,2E0,2E0,4E0,2.3E1,5E0,1.1E1,2.7E1,1.1E1,2.74E2,1.36E3,4E0,4E0,1.49E2,9.6E1,2.24E2,5.4E2,1.686E3,6.528E3],"tree_param":{"num_deleted":"0","num_feature":"8","num_nodes":"47","size_leaf_vector":"1"}},{"base_weights":[-2.5710537E0,-2.7414363E3,1.28112E3,-2.7498271E3,-1.8393197E3,1.2174307E3,1.0646735E2,-1.3752747E2,3.0166784E1,1.6033496E3,-2.0025637E3,1.1517649E3,1.2294938E3,1.462561E1,1.0562561E2,-2.1103738E3,8.739382E1,1.158796E3,-4.597146E1,1.122494E3,1.2385443E3,-5.783172E2,-2.3017966E3,1.0661647E3,1.190736E3,-2.550143E2,2.5588281E2,1.1650074E3,9.2554596E2,1.4693792E3,1.2337872E3,7.12686E0,-7.934844E1,-1.3236064E2,-7.172417E1,5.04541E1,6.2860126E1,6.0959255E1,4.9349754E1,-2.9825235E1,4.4140626E-2,1.8338257E1,-4.691162E0,5.5912537E1,6.977286E1,2.9034994E1,5.2253944E1,6.2886654E1,9.227215E1,6.1780975E1,4.8207134E1],"categories":[],"categories_nodes":[],"categories_segments":[],"categories_sizes":[],"default_left":[0,0,0,0,0,0,0,0,0,0,0,0,0,0,0,0,0,0,0,0,0,0,0,0,0,0,0,0,0,0,0,0,0,0,0,0,0,0,0,0,0,0,0,0,0,0,0,0,0,0,0],"id":1,"left_children":[1,3,5,7,9,11,-1,-1,-1,13,15,17,19,-1,-1,21,-1,23,25,27,29,31,33,35,37,39,41,43,45,47,49,-1,-1,-1,-1,-1,-1,-1,-1,-1,-1,-1,-1,-1,-1,-1,-1,-1,-1,-1,-1],"loss_changes":[6.0947374E10,3.681485E7,6.350418E8,1.4934016E7,3.3558544E7,7.281664E6,0E0,0E0,0E0,1.384353E6,2.4714112E7,1.4537984E7,7.579648E6,0E0,0E0,1.3625616E7,0E0,3.789824E6,7.59359E5,5.059136E6,7.554048E6,5.315839E6,9.683904E6,3.616832E6,6.117376E6,6.122315E5,2.2829225E5,4.893696E6,4.957888E6,1.097088E7,2.940928E6,0E0,0E0,0E0,0E0,0E0,0E0,0E0,0E0,0E0,0E0,0E0,0E0,0E0,0E0,0E0,0E0,0E0,0E0,0E0,0E0],"parents":[2147483647,0,0,1,1,2,2,3,3,4,4,5,5,9,9,10,10,11,11,12,12,15,15,17,17,18,18,19,19,20,20,21,21,22,22,23,23,24,24,25,25,26,26,27,27,28,28,29,29,30,30],"right_children":[2,4,6,8,10,12,-1,-1,-1,14,16,18,20,-1,-1,22,-1,24,26,28,30,32,34,36,38,40,42,44,46,48,50,-1,-1,-1,-1,-1,-1,-1,-1,-1,-1,-1,-1,-1,-1,-1,-1,-1,-1,-1,-1],"split_conditions":[2.26E3,1.725E3,5.3839585E3,5.3839585E3,3.1752083E3,3.615E3,1.0646735E2,-1.3752747E2,3.0166784E1,4.325E3,3.83E3,7.63E3,7.85E2,1.462561E1,1.0562561E2,4E0,8.739382E1,3.2372917E3,5E0,6E0,1.01E3,3.4727083E3,3.085E3,7E0,6.15E3,3.3489583E3,6E0,6.115E3,4.325E3,3.5133333E3,7.53E3,7.12686E0,-7.934844E1,-1.3236064E2,-7.172417E1,5.04541E1,6.2860126E1,6.0959255E1,4.9349754E1,-2.9825235E1,4.4140626E-2,1.8338257E1,-4.691162E0,5.5912537E1,6.977286E1,2.9034994E1,5.2253944E1,6.2886654E1,9.227215E1,6.1780975E1,4.8207134E1],"split_indices":[5,5,7,7,7,5,0,0,0,4,7,4,4,0,0,2,0,7,1,1,4,7,4,2,4,7,1,5,5,7,5,0,0,0,0,0,0,0,0,0,0,0,0,0,0,0,0,0,0,0,0],"split_type":[0,0,0,0,0,0,0,0,0,0,0,0,0,0,0,0,0,0,0,0,0,0,0,0,0,0,0,0,0,0,0,0,0,0,0,0,0,0,0,0,0,0,0,0,0,0,0,0,0,0,0],"sum_hessian":[1.7333E4,5.531E3,1.1802E4,5.478E3,5.3E1,1.098E4,8.22E2,5.477E3,1E0,2E0,5.1E1,1.719E3,9.261E3,1E0,1E0,5E1,1E0,1.709E3,1E1,7.32E2,8.529E3,6E0,4.4E1,4.47E2,1.262E3,6E0,4E0,5.98E2,1.34E2,1.66E2,8.363E3,4E0,2E0,3E1,1.4E1,3.49E2,9.8E1,1.103E3,1.59E2,2E0,4E0,3E0,1E0,5.02E2,9.6E1,3.6E1,9.8E1,1.09E2,5.7E1,8.303E3,6E1],"tree_param":{"num_deleted":"0","num_feature":"8","num_nodes":"51","size_leaf_vector":"1"}},{"base_weights":[6.4038773E0,-2.3823179E3,1.1938125E3,-1.3050642E2,1.0190319E2,1.1565725E3,9.763422E1,1.1946523E3,1.1416527E3,1.1542982E3,1.2799666E3,1.0991617E3,1.1666722E3,1.1090319E3,1.2600535E3,1.1464344E3,1.3168578E3,9.28716E2,1.1139248E3,1.1977074E3,1.1433785E3,5.627502E1,4.2470684E1,5.1912697E1,6.633949E1,7.5822077E0,5.8687237E1,6.925086E1,6.260301E1,5.1982483E1,3.525076E1,8.1122154E1,5.5543495E1,5.735721E1,6.2948452E1,5.0382668E1,5.8393932E1],"categories":[],"categories_nodes":[],"categories_segments":[],"categories_sizes":[],"default_left":[0,0,0,0,0,0,0,0,0,0,0,0,0,0,0,0,0,0,0,0,0,0,0,0,0,0,0,0,0,0,0,0,0,0,0,0,0],"id":2,"left_children":[1,3,5,-1,-1,7,-1,9,11,13,15,17,19,21,23,25,27,29,31,33,35,-1,-1,-1,-1,-1,-1,-1,-1,-1,-1,-1,-1,-1,-1,-1,-1],"loss_changes":[4.8879493E10,5.76743E9,3.2304538E8,0E0,0E0,4.871168E6,0E0,9.084928E6,7.124992E6,8.62208E6,3.298432E6,6.383616E6,2.216448E6,5.346048E6,7.799744E6,5.771808E6,1.613568E6,5.24768E6,2.404864E6,5.079552E6,8.32E6,0E0,0E0,0E0,0E0,0E0,0E0,0E0,0E0,0E0,0E0,0E0,0E0,0E0,0E0,0E0,0E0],"parents":[2147483647,0,0,1,1,2,2,5,5,7,7,8,8,9,9,10,10,11,11,12,12,13,13,14,14,15,15,16,16,17,17,18,18,19,19,20,20],"right_children":[2,4,6,-1,-1,8,-1,10,12,14,16,18,20,22,24,26,28,30,32,34,36,-1,-1,-1,-1,-1,-1,-1,-1,-1,-1,-1,-1,-1,-1,-1,-1],"split_conditions":[8E0,5.3839585E3,5.3839585E3,-1.3050642E2,1.0190319E2,3.69E3,9.763422E1,3.24E3,4.725E3,3.499375E3,1E0,3.1397917E3,3.4329167E3,3.47875E3,4.2E2,3.0514583E3,1.7E1,4.325E3,3.1458333E3,5.63E3,3.4727083E3,5.627502E1,4.2470684E1,5.1912697E1,6.633949E1,7.5822077E0,5.8687237E1,6.925086E1,6.260301E1,5.1982483E1,3.525076E1,8.1122154E1,5.5543495E1,5.735721E1,6.2948452E1,5.0382668E1,5.8393932E1],"split_indices":[0,7,7,0,0,4,0,4,4,7,1,7,7,7,4,7,0,4,7,4,7,0,0,0,0,0,0,0,0,0,0,0,0,0,0,0,0],"split_type":[0,0,0,0,0,0,0,0,0,0,0,0,0,0,0,0,0,0,0,0,0,0,0,0,0,0,0,0,0,0,0,0,0,0,0,0,0],"sum_hessian":[1.7231E4,5.721E3,1.151E4,5.441E3,2.8E2,1.0974E4,5.36E2,3.067E3,7.907E3,2.092E3,9.75E2,2.947E3,4.96E3,1.473E3,6.19E2,2.18E2,7.57E2,2.4E2,2.707E3,2.105E3,2.855E3,1.382E3,9.1E1,1.47E2,4.72E2,6E0,2.12E2,3.59E2,3.98E2,1.58E2,8.2E1,1.3E1,2.694E3,1.164E3,9.41E2,4.43E2,2.412E3],"tree_param":{"num_deleted":"0","num_feature":"8","num_nodes":"37","size_leaf_vector":"1"}},{"base_weights":[-9.691708E0,-2.4693892E3,1.1510535E3,-1.2391494E2,1.2263545E3,1.0971273E3,9.432699E1,4.95068E2,1.886917E3,1.0825541E3,1.1398754E3,5.141101E1,6.086796E1,2.6941946E1,1.1591902E2,1.0993683E3,1.0144389E3,1.1360725E3,1.7610728E3,3.493056E2,-1.814594E1,1.1027004E3,8.923179E2,1.02107886E3,-1.6533704E2,1.2318132E3,1.1205774E3,-1.2674994E1,9.61539E1,-2.4963868E0,2.49513E1,5.489445E1,6.836365E1,2.0568506E1,5.3487453E1,5.028298E1,7.480868E1,4.375293E1,-1.8908264E1,5.8147316E1,7.494487E1,6.296173E1,5.524644E1],"categories":[],"categories_nodes":[],"categories_segments":[],"categories_sizes":[],"default_left":[0,0,0,0,0,0,0,0,0,0,0,0,0,0,0,0,0,0,0,0,0,0,0,0,0,0,0,0,0,0,0,0,0,0,0,0,0,0,0,0,0,0,0],"id":3,"left_children":[1,3,5,-1,7,9,-1,11,13,15,17,19,-1,-1,-1,21,23,25,27,29,-1,31,33,35,37,39,41,-1,-1,-1,-1,-1,-1,-1,-1,-1,-1,-1,-1,-1,-1,-1,-1],"loss_changes":[4.93615E10,1.8556314E8,4.6380032E8,0E0,5.828692E6,5.58592E6,0E0,2.501011E6,2.822292E6,8.256512E6,4.528896E6,8.673292E5,0E0,0E0,0E0,3.534848E6,1.296128E7,2.699264E6,5.383068E6,2.640087E5,0E0,6.701056E6,8.861472E6,1.0392064E7,2.5451728E6,5.117632E6,3.76832E6,0E0,0E0,0E0,0E0,0E0,0E0,0E0,0E0,0E0,0E0,0E0,0E0,0E0,0E0,0E0,0E0],"parents":[2147483647,0,0,1,1,2,2,4,4,5,5,7,7,8,8,9,9,10,10,11,11,15,15,16,16,17,17,18,18,19,19,21,21,22,22,23,23,24,24,25,25,26,26],"right_children":[2,4,6,-1,8,10,-1,12,14,16,18,20,-1,-1,-1,22,24,26,28,30,-1,32,34,36,38,40,42,-1,-1,-1,-1,-1,-1,-1,-1,-1,-1,-1,-1,-1,-1,-1,-1],"split_conditions":[2.26E3,8E0,5.3839585E3,-1.2391494E2,4.525E3,4.9616665E3,9.432699E1,3.4172917E3,1.6E1,2E1,3.9508333E3,3.91E3,6.086796E1,2.6941946E1,1.1591902E2,3.811875E3,3.83E3,5.0633335E3,3.615E3,1.2E3,-1.814594E1,3.755E3,4.745E3,3.6897917E3,3.205E3,5.91E3,3.39E3,-1.2674994E1,9.61539E1,-2.4963868E0,2.49513E1,5.489445E1,6.836365E1,2.0568506E1,5.3487453E1,5.028298E1,7.480868E1,4.375293E1,-1.8908264E1,5.8147316E1,7.494487E1,6.296173E1,5.524644E1],"split_indices":[5,0,7,0,4,6,0,7,0,0,7,4,0,0,0,7,7,6,5,4,0,7,5,7,4,4,5,0,0,0,0,0,0,0,0,0,0,0,0,0,0,0,0],"split_type":[0,0,0,0,0,0,0,0,0,0,0,0,0,0,0,0,0,0,0,0,0,0,0,0,0,0,0,0,0,0,0,0,0,0,0,0,0,0,0,0,0,0,0],"sum_hessian":[1.7287E4,5.542E3,1.1745E4,5.529E3,1.3E1,1.0945E4,8E2,7E0,6E0,8.182E3,2.763E3,5E0,2E0,2E0,4E0,6.55E3,1.632E3,2.749E3,1.4E1,3E0,2E0,6.442E3,1.08E2,1.623E3,9E0,3.72E2,2.377E3,1E0,1.3E1,1E0,2E0,6.332E3,1.1E2,3E1,7.8E1,1.575E3,4.8E1,1E0,8E0,3E2,7.2E1,2.33E2,2.144E3],"tree_param":{"num_deleted":"0","num_feature":"8","num_nodes":"43","size_leaf_vector":"1"}},{"base_weights":[4.953417E0,-2.1526072E3,1.0740687E3,-2.3268025E3,-5.312841E2,1.0518728E3,1.2466119E3,-2.347358E3,-1.9167452E3,-1.6749386E3,1.8542811E3,1.0372242E3,1.1118091E3,1.8209874E3,1.1782322E3,-1.1808886E2,-2.2320093E3,-1.1323528E2,1.4687416E3,-1.5252274E3,-1.1583854E2,1.0240304E2,7.960772E1,1.0408474E3,7.660985E2,1.7788167E3,1.0894138E3,1.8306725E3,1.259563E1,-2.912823E1,1.1802384E3,-1.1521873E2,8.01162E1,8.26556E1,8.933618E2,-1.1347626E2,-1.3819524E3,9.8062524E2,1.0471711E3,9.4956354E2,3.983418E2,2.1076895E3,7.534937E1,9.916707E2,1.1299733E3,4.480301E1,1.8522057E3,1.3193671E3,1.1548876E3,1.173891E1,4.7695274E1,-7.847249E1,-4.621687E1,5.8911648E1,4.7569103E1,8.307644E1,5.224599E1,3.1529749E1,5.1681576E1,1.4869916E1,5.1263893E1,1.597063E1,1.083222E2,5.0349926E1,2.3155869E1,6.2453957E1,5.4773506E1,9.6451775E1,7.759154E1,5.4359608E1,7.471329E1,6.21274E1,5.4519814E1],"categories":[],"categories_nodes":[],"categories_segments":[],"categories_sizes":[],"default_left":[0,0,0,0,0,0,0,0,0,0,0,0,0,0,0,0,0,0,0,0,0,0,0,0,0,0,0,0,0,0,0,0,0,0,0,0,0,0,0,0,0,0,0,0,0,0,0,0,0,0,0,0,0,0,0,0,0,0,0,0,0,0,0,0,0,0,0,0,0,0,0,0,0],"id":4,"left_children":[1,3,5,7,9,11,13,15,17,19,21,23,25,27,29,-1,31,-1,33,35,-1,-1,-1,37,39,41,43,45,-1,-1,47,-1,-1,-1,49,-1,51,53,55,57,59,61,-1,63,65,-1,67,69,71,-1,-1,-1,-1,-1,-1,-1,-1,-1,-1,-1,-1,-1,-1,-1,-1,-1,-1,-1,-1,-1,-1,-1,-1],"loss_changes":[3.966108E10,1.6077476E9,4.271821E7,3.885875E7,1.5145632E9,7.795712E6,4.910925E7,2.869248E6,2.99008E8,3.2499968E7,5.882176E6,7.263232E6,2.7758336E7,1.620768E6,4.817408E6,0E0,1.5963213E8,0E0,1.069164E6,2.960192E7,0E0,0E0,0E0,2.056192E6,7.178444E6,2.45576E6,6.514944E6,1.077344E6,0E0,0E0,2.59584E6,0E0,0E0,0E0,9.5028E4,0E0,2.0857696E7,3.415296E6,8.37632E6,1.332504E6,2.1632025E6,2.039808E6,0E0,4.175808E6,4.195968E6,0E0,5.2704E4,5.400448E6,4.27584E6,0E0,0E0,0E0,0E0,0E0,0E0,0E0,0E0,0E0,0E0,0E0,0E0,0E0,0E0,0E0,0E0,0E0,0E0,0E0,0E0,0E0,0E0,0E0,0E0],"parents":[2147483647,0,0,1,1,2,2,3,3,4,4,5,5,6,6,7,7,8,8,9,9,10,10,11,11,12,12,13,13,14,14,16,16,18,18,19,19,23,23,24,24,25,25,26,26,27,27,30,30,34,34,36,36,37,37,38,38,39,39,40,40,41,41,43,43,44,44,46,46,47,47,48,48],"right_children":[2,4,6,8,10,12,14,16,18,20,22,24,26,28,30,-1,32,-1,34,36,-1,-1,-1,38,40,42,44,46,-1,-1,48,-1,-1,-1,50,-1,52,54,56,58,60,62,-1,64,66,-1,68,70,72,-1,-1,-1,-1,-1,-1,-1,-1,-1,-1,-1,-1,-1,-1,-1,-1,-1,-1,-1,-1,-1,-1,-1,-1],"split_conditions":[8E0,5.3116665E3,5.5466665E3,4.9883335E3,2E0,4.9616665E3,1.4E1,3.87E3,2E0,6.595E3,5.895E3,6.94E3,1.4E1,7.37E3,3.205E3,-1.1808886E2,2E0,-1.1323528E2,5.2016665E3,4.585E3,-1.1583854E2,1.0240304E2,7.960772E1,7.15E2,4.29E3,5E0,4.675E3,9E0,1.259563E1,-2.912823E1,4.915E3,-1.1521873E2,8.01162E1,8.26556E1,4E0,-1.1347626E2,5.8016665E3,2.8166666E2,4.0666666E2,1E0,2.2E1,4.9883335E3,7.534937E1,5.5066665E3,5.095E3,4.480301E1,6.515E3,1.9E1,1.8E1,1.173891E1,4.7695274E1,-7.847249E1,-4.621687E1,5.8911648E1,4.7569103E1,8.307644E1,5.224599E1,3.1529749E1,5.1681576E1,1.4869916E1,5.1263893E1,1.597063E1,1.083222E2,5.0349926E1,2.3155869E1,6.2453957E1,5.4773506E1,9.6451775E1,7.759154E1,5.4359608E1,7.471329E1,6.21274E1,5.4519814E1],"split_indices":[0,6,6,6,0,6,0,4,0,4,6,4,0,4,4,0,0,0,6,4,0,0,0,4,6,2,4,0,0,0,4,0,0,0,1,0,6,6,6,1,0,6,0,6,6,0,4,0,0,0,0,0,0,0,0,0,0,0,0,0,0,0,0,0,0,0,0,0,0,0,0,0,0],"split_type":[0,0,0,0,0,0,0,0,0,0,0,0,0,0,0,0,0,0,0,0,0,0,0,0,0,0,0,0,0,0,0,0,0,0,0,0,0,0,0,0,0,0,0,0,0,0,0,0,0,0,0,0,0,0,0,0,0,0,0,0,0,0,0,0,0,0,0,0,0,0,0,0,0],"sum_hessian":[1.7192E4,5.696E3,1.1496E4,5.143E3,5.53E2,1.0192E4,1.304E3,4.893E3,2.5E2,3.74E2,1.79E2,8.205E3,1.987E3,1.36E2,1.168E3,4.332E3,5.61E2,2.27E2,2.3E1,3.06E2,6.8E1,9.9E1,8E1,8.094E3,1.11E2,6.2E1,1.925E3,1.35E2,1E0,1E0,1.167E3,5.51E2,1E1,1.6E1,7E0,4.7E1,2.59E2,7.84E2,7.31E3,7.3E1,3.8E1,2.5E1,3.7E1,5.72E2,1.353E3,4E0,1.31E2,1.72E2,9.95E2,1E0,6E0,1.82E2,7.7E1,9.6E1,6.88E2,2.4E1,7.286E3,1.7E1,5.6E1,3.4E1,4E0,1E0,2.4E1,5.55E2,1.7E1,2.96E2,1.057E3,1E2,3.1E1,7.7E1,9.5E1,4.14E2,5.81E2],"tree_param":{"num_deleted":"0","num_feature":"8","num_nodes":"73","size_leaf_vector":"1"}},{"base_weights":[-7.0849967E0,-2.231725E3,1.035598E3,-2.2410635E3,1.1324022E3,9.843962E2,8.665608E1,-1.1208473E2,3.1118336E1,1.7323762E3,7.8804626E2,9.598992E2,1.0055211E3,1.0626798E2,3.8096706E1,3.1743225E2,8.249581E1,9.8402606E2,8.756171E2,1.2384501E3,9.980496E2,6.150531E2,-2.0835706E2,9.9441785E2,7.3964935E2,8.840404E2,5.8225903E2,1.0640288E3,1.4715608E3,1.1022065E3,9.8883026E2,-3.7401307E0,3.839924E1,-1.9251005E1,8.040802E0,4.9897026E1,2.3201643E1,4.218533E1,1.7702623E1,3.4410534E1,4.479517E1,5.288443E0,4.671691E1,4.860367E1,9.247971E1,8.387373E1,4.5430325E1,5.1690052E1,6.5524506E1,4.839E1,5.258799E1],"categories":[],"categories_nodes":[],"categories_segments":[],"categories_sizes":[],"default_left":[0,0,0,0,0,0,0,0,0,0,0,0,0,0,0,0,0,0,0,0,0,0,0,0,0,0,0,0,0,0,0,0,0,0,0,0,0,0,0,0,0,0,0,0,0,0,0,0,0,0,0],"id":5,"left_children":[1,3,5,7,9,11,-1,-1,-1,13,15,17,19,-1,-1,21,-1,23,25,27,29,31,33,35,37,39,41,43,45,47,49,-1,-1,-1,-1,-1,-1,-1,-1,-1,-1,-1,-1,-1,-1,-1,-1,-1,-1,-1,-1],"loss_changes":[4.026815E10,1.7657856E8,4.2044006E8,1.1380736E7,1.940482E6,4.733952E6,0E0,0E0,0E0,2.87454E5,4.3435595E6,9.55392E6,9.019392E6,0E0,0E0,1.5365232E6,0E0,9.356544E6,2.32448E6,5.712256E6,4.398592E6,6.90452E5,3.2279434E5,6.653184E6,6.36188E6,1.973696E6,5.772854E6,5.859184E6,7.05392E6,5.142144E6,5.942784E6,0E0,0E0,0E0,0E0,0E0,0E0,0E0,0E0,0E0,0E0,0E0,0E0,0E0,0E0,0E0,0E0,0E0,0E0,0E0,0E0],"parents":[2147483647,0,0,1,1,2,2,3,3,4,4,5,5,9,9,10,10,11,11,12,12,15,15,17,17,18,18,19,19,20,20,21,21,22,22,23,23,24,24,25,25,26,26,27,27,28,28,29,29,30,30],"right_children":[2,4,6,8,10,12,-1,-1,-1,14,16,18,20,-1,-1,22,-1,24,26,28,30,32,34,36,38,40,42,44,46,48,50,-1,-1,-1,-1,-1,-1,-1,-1,-1,-1,-1,-1,-1,-1,-1,-1,-1,-1,-1,-1],"split_conditions":[2.26E3,8E0,5.3839585E3,5.3839585E3,3.1752083E3,4.67E3,8.665608E1,-1.1208473E2,3.1118336E1,4.455E3,3.4172917E3,2.1E1,9E0,1.0626798E2,3.8096706E1,3.3320833E3,8.249581E1,4.61E3,6.1E3,1E0,3.195E3,4.8666666E2,4.975E3,3.8583333E3,4.975E3,3.765E3,2.2E1,3.6897917E3,6.075E3,4.5633335E3,5.03E3,-3.7401307E0,3.839924E1,-1.9251005E1,8.040802E0,4.9897026E1,2.3201643E1,4.218533E1,1.7702623E1,3.4410534E1,4.479517E1,5.288443E0,4.671691E1,4.860367E1,9.247971E1,8.387373E1,4.5430325E1,5.1690052E1,6.5524506E1,4.839E1,5.258799E1],"split_indices":[5,0,7,7,7,5,0,0,0,6,7,0,0,0,0,7,0,5,6,3,7,6,6,7,6,6,0,7,5,6,6,0,0,0,0,0,0,0,0,0,0,0,0,0,0,0,0,0,0,0,0],"split_type":[0,0,0,0,0,0,0,0,0,0,0,0,0,0,0,0,0,0,0,0,0,0,0,0,0,0,0,0,0,0,0,0,0,0,0,0,0,0,0,0,0,0,0,0,0,0,0,0,0,0,0],"sum_hessian":[1.7358E4,5.539E3,1.1819E4,5.524E3,1.5E1,1.1013E4,8.06E2,5.523E3,1E0,4E0,1.1E1,5.121E3,5.892E3,2E0,2E0,8E0,3E0,3.973E3,1.148E3,1.78E2,5.714E3,5E0,3E0,3.808E3,1.65E2,1.114E3,3.4E1,1.05E2,7.3E1,4.55E2,5.259E3,1E0,4E0,2E0,1E0,3.782E3,2.6E1,1.29E2,3.6E1,6.7E1,1.047E3,1.5E1,1.9E1,9.6E1,9E0,5.2E1,2.1E1,3.47E2,1.08E2,3.954E3,1.305E3],"tree_param":{"num_deleted":"0","num_feature":"8","num_nodes":"51","size_leaf_vector":"1"}},{"base_weights":[5.028487E0,-2.1176685E3,9.9383276E2,-2.1240425E3,9.5263525E2,9.432089E2,1.6542745E3,-1.06232765E2,3.0340376E1,3.6661447E2,1.4775536E3,7.995002E2,9.4667737E2,1.9212322E3,1.6261045E3,5.6988745E2,-9.437866E1,2.3022375E1,9.354974E1,1.0309388E3,6.127002E2,1.2302352E3,9.448695E2,1.0062874E2,1.2815813E3,8.293274E1,1.4766075E3,3.911337E1,3.2122565E2,-1.4918182E1,7.8397827E0,-3.6055935E1,1.0524447E3,9.95623E2,4.66557E2,1.405809E3,5.6297394E2,1.0815294E3,9.4120654E2,8.8406934E2,9.2779396E1,1.5441844E3,9.7704297E2,-3.6466248E0,2.3846127E1,3.464011E1,5.65036E1,-2.6654669E1,5.2424496E1,1.14580555E1,2.9268467E1,5.18208E1,8.9719124E1,3.3367485E1,-2.2457178E1,3.4656033E1,5.9847504E1,4.656266E1,4.9028152E1,8.5915E0,5.315096E1,7.927289E1,4.842788E1,3.4860962E1,6.548131E1],"categories":[],"categories_nodes":[],"categories_segments":[],"categories_sizes":[],"default_left":[0,0,0,0,0,0,0,0,0,0,0,0,0,0,0,0,0,0,0,0,0,0,0,0,0,0,0,0,0,0,0,0,0,0,0,0,0,0,0,0,0,0,0,0,0,0,0,0,0,0,0,0,0,0,0,0,0,0,0,0,0,0,0,0,0],"id":6,"left_children":[1,3,5,7,9,11,13,-1,-1,15,17,19,21,23,25,27,29,-1,-1,31,33,35,37,-1,39,-1,41,-1,43,-1,-1,-1,45,47,49,51,53,55,57,59,-1,61,63,-1,-1,-1,-1,-1,-1,-1,-1,-1,-1,-1,-1,-1,-1,-1,-1,-1,-1,-1,-1,-1,-1],"loss_changes":[3.6055454E10,1.0885734E8,3.9025357E8,1.0405888E7,3.149664E6,4.66944E6,3.140352E6,0E0,0E0,7.097374E5,1.539534E6,1.073856E7,4.284416E6,1.744352E6,1.249024E6,1.27695E4,2.0048948E5,0E0,0E0,5.129768E6,7.817792E6,6.706392E6,4.269056E6,0E0,1.097624E6,0E0,3.386336E6,0E0,2.8025997E5,0E0,0E0,0E0,2.427664E6,3.791684E6,2.940262E6,5.317088E6,1.8843445E6,1.1229728E7,3.119104E6,9.644375E5,0E0,1.457888E6,9.48196E5,0E0,0E0,0E0,0E0,0E0,0E0,0E0,0E0,0E0,0E0,0E0,0E0,0E0,0E0,0E0,0E0,0E0,0E0,0E0,0E0,0E0,0E0],"parents":[2147483647,0,0,1,1,2,2,3,3,4,4,5,5,6,6,9,9,10,10,11,11,12,12,13,13,14,14,15,15,16,16,19,19,20,20,21,21,22,22,24,24,26,26,28,28,32,32,33,33,34,34,35,35,36,36,37,37,38,38,39,39,41,41,42,42],"right_children":[2,4,6,8,10,12,14,-1,-1,16,18,20,22,24,26,28,30,-1,-1,32,34,36,38,-1,40,-1,42,-1,44,-1,-1,-1,46,48,50,52,54,56,58,60,-1,62,64,-1,-1,-1,-1,-1,-1,-1,-1,-1,-1,-1,-1,-1,-1,-1,-1,-1,-1,-1,-1,-1,-1],"split_conditions":[2.26E3,8E0,5.3839585E3,5.3839585E3,4.325E3,2.865E3,3E0,-1.06232765E2,3.0340376E1,2E1,1.6E1,4.29E3,2.92E3,6.77E3,6E0,9.3E2,1E0,2.3022375E1,9.354974E1,1E1,2.545E3,6E0,9E0,1.0062874E2,7.53E3,8.293274E1,6.445E3,3.911337E1,1.2E3,-1.4918182E1,7.8397827E0,-3.6055935E1,5.5E2,4.325E3,1.4E1,4.895E3,2.2E1,2.55E2,7E0,5.545E3,9.2779396E1,2.3E1,7.015E3,-3.6466248E0,2.3846127E1,3.464011E1,5.65036E1,-2.6654669E1,5.2424496E1,1.14580555E1,2.9268467E1,5.18208E1,8.9719124E1,3.3367485E1,-2.2457178E1,3.4656033E1,5.9847504E1,4.656266E1,4.9028152E1,8.5915E0,5.315096E1,7.927289E1,4.842788E1,3.4860962E1,6.548131E1],"split_indices":[5,0,7,7,4,5,0,0,0,0,0,4,5,5,1,4,1,0,0,4,5,1,0,0,5,0,4,0,4,0,0,0,4,4,0,4,0,4,2,4,0,0,4,0,0,0,0,0,0,0,0,0,0,0,0,0,0,0,0,0,0,0,0,0,0],"split_type":[0,0,0,0,0,0,0,0,0,0,0,0,0,0,0,0,0,0,0,0,0,0,0,0,0,0,0,0,0,0,0,0,0,0,0,0,0,0,0,0,0,0,0,0,0,0,0,0,0,0,0,0,0,0,0,0,0,0,0,0,0,0,0,0,0],"sum_hessian":[1.7176E4,5.458E3,1.1718E4,5.447E3,1.1E1,1.0886E4,8.32E2,5.446E3,1E0,6E0,5E0,2.62E2,1.0624E4,7.3E1,7.59E2,4E0,2E0,2E0,3E0,1.15E2,1.47E2,6.3E1,1.0561E4,6.2E1,1.1E1,6.15E2,1.44E2,1E0,3E0,1E0,1E0,1E0,1.14E2,3.9E1,1.08E2,4.9E1,1.4E1,2.68E2,1.0293E4,8E0,3E0,1.25E2,1.9E1,1E0,2E0,2.2E1,9.2E1,1E0,3.8E1,3.7E1,7.1E1,2.7E1,2.2E1,1.3E1,1E0,6.3E1,2.05E2,8.235E3,2.058E3,2E0,6E0,1.15E2,1E1,1.2E1,7E0],"tree_param":{"num_deleted":"0","num_feature":"8","num_nodes":"65","size_leaf_vector":"1"}},{"base_weights":[3.9036427E0,-2.0114335E3,9.3769836E2,-1.0096383E2,1.1876305E3,8.9201697E2,7.7899284E1,-3.5554566E0,1.2899266E3,8.214961E2,9.030919E2,1.6925132E3,9.2294214E2,8.0233746E2,1.01933795E3,9.0792194E2,7.4561346E2,2.4017542E1,9.377331E1,1.0843872E2,6.560604E1,8.054015E2,-1.9827939E2,1.2442986E3,6.8385E2,1.0667589E3,9.0309326E2,8.1730853E2,4.0451074E2,1.6926067E1,-1.4545227E1,4.005341E1,7.6767265E1,-2.9909885E1,1.3386601E1,4.510677E1,7.2391846E1,3.676864E1,-2.1858093E1,3.6289967E1,5.900953E1,4.0534084E1,4.558405E1,3.3446938E1,5.2610664E1,5.9925733E0,2.638484E1],"categories":[],"categories_nodes":[],"categories_segments":[],"categories_sizes":[],"default_left":[0,0,0,0,0,0,0,0,0,0,0,0,0,0,0,0,0,0,0,0,0,0,0,0,0,0,0,0,0,0,0,0,0,0,0,0,0,0,0,0,0,0,0,0,0,0,0],"id":7,"left_children":[1,3,5,-1,7,9,-1,-1,11,13,15,17,19,21,23,25,27,-1,-1,29,-1,31,33,35,37,39,41,43,45,-1,-1,-1,-1,-1,-1,-1,-1,-1,-1,-1,-1,-1,-1,-1,-1,-1,-1],"loss_changes":[3.2493087E10,1.39563E8,3.329413E8,0E0,1.894424E6,7.842816E6,0E0,0E0,3.58566E5,4.879168E6,6.541824E6,2.07962E5,2.710601E6,4.375232E6,8.884928E6,6.094848E6,6.712544E6,0E0,0E0,4.6600516E5,0E0,3.106688E6,1.091989E6,3.986744E6,3.440392E6,9.431104E6,6.354432E6,7.556256E6,1.760189E6,0E0,0E0,0E0,0E0,0E0,0E0,0E0,0E0,0E0,0E0,0E0,0E0,0E0,0E0,0E0,0E0,0E0,0E0],"parents":[2147483647,0,0,1,1,2,2,4,4,5,5,8,8,9,9,10,10,11,11,12,12,13,13,14,14,15,15,16,16,19,19,21,21,22,22,23,23,24,24,25,25,26,26,27,27,28,28],"right_children":[2,4,6,-1,8,10,-1,-1,12,14,16,18,20,22,24,26,28,-1,-1,30,-1,32,34,36,38,40,42,44,46,-1,-1,-1,-1,-1,-1,-1,-1,-1,-1,-1,-1,-1,-1,-1,-1,-1,-1],"split_conditions":[2.26E3,8E0,5.3839585E3,-1.0096383E2,4.8666666E2,3.54E3,7.7899284E1,-3.5554566E0,4.455E3,5.5683335E3,3.799375E3,5.05E2,1E0,3.8583333E3,5.8633335E3,9E0,5.7233335E3,2.4017542E1,9.377331E1,2E1,6.560604E1,3.799375E3,3.3E3,5.68E3,3.515E3,3.3154167E3,9.283333E2,4.975E3,1.8E1,1.6926067E1,-1.4545227E1,4.005341E1,7.6767265E1,-2.9909885E1,1.3386601E1,4.510677E1,7.2391846E1,3.676864E1,-2.1858093E1,3.6289967E1,5.900953E1,4.0534084E1,4.558405E1,3.3446938E1,5.2610664E1,5.9925733E0,2.638484E1],"split_indices":[5,0,7,0,6,5,0,0,6,6,7,6,1,7,6,0,6,0,0,0,0,7,5,6,5,7,6,6,0,0,0,0,0,0,0,0,0,0,0,0,0,0,0,0,0,0,0],"split_type":[0,0,0,0,0,0,0,0,0,0,0,0,0,0,0,0,0,0,0,0,0,0,0,0,0,0,0,0,0,0,0,0,0,0,0,0,0,0,0,0,0,0,0,0,0,0,0],"sum_hessian":[1.7264E4,5.466E3,1.1798E4,5.453E3,1.3E1,1.0991E4,8.07E2,1E0,1.2E1,1.502E3,9.489E3,4E0,8E0,1.374E3,1.28E2,9.202E3,2.87E2,1E0,3E0,3E0,5E0,1.37E3,4E0,7.5E1,5.3E1,2.65E2,8.937E3,2.36E2,5.1E1,2E0,1E0,1.364E3,6E0,2E0,2E0,3E1,4.5E1,5.1E1,2E0,6.8E1,1.97E2,7.68E2,8.169E3,1.47E2,8.9E1,1.6E1,3.5E1],"tree_param":{"num_deleted":"0","num_feature":"8","num_nodes":"47","size_leaf_vector":"1"}},{"base_weights":[8.232399E0,-1.7649242E3,8.820656E2,-9.60198E1,1.5298375E3,8.525595E2,1.483141E3,1.5598987E3,1.071182E3,1.0141401E3,8.480783E2,7.726307E2,7.441734E1,1.2199766E3,8.061192E1,1.4061511E1,5.4972218E1,7.230757E2,1.1785769E3,1.1463446E3,8.4620734E2,4.9283947E1,1.1551139E1,6.944631E1,7.663333E2,8.1830035E2,1.2439023E2,7.1986786E2,1.2883903E3,1.5317172E3,9.225181E2,7.307434E2,8.5330426E2,5.258228E0,4.084396E1,5.175712E1,3.282725E1,-4.5186744E0,3.9563736E1,4.5493008E1,3.287462E-1,9.215453E1,5.803309E1,8.099687E1,2.1650505E1,8.4657776E1,4.111957E1,3.9779987E1,3.1426558E1,7.823065E1,4.2604153E1],"categories":[],"categories_nodes":[],"categories_segments":[],"categories_sizes":[],"default_left":[0,0,0,0,0,0,0,0,0,0,0,0,0,0,0,0,0,0,0,0,0,0,0,0,0,0,0,0,0,0,0,0,0,0,0,0,0,0,0,0,0,0,0,0,0,0,0,0,0,0,0],"id":8,"left_children":[1,3,5,-1,7,9,11,13,15,17,19,21,-1,23,-1,-1,-1,25,27,29,31,-1,-1,-1,33,35,37,39,41,43,45,47,49,-1,-1,-1,-1,-1,-1,-1,-1,-1,-1,-1,-1,-1,-1,-1,-1,-1,-1],"loss_changes":[2.6710856E10,2.9181071E9,2.0354355E8,0E0,1.872576E6,7.11168E6,8.43776E5,2.285248E6,1.14992E5,1.3123424E7,5.011968E6,4.646175E5,0E0,1.69476E6,0E0,0E0,0E0,6.055248E6,8.391408E6,4.107392E6,8.108032E6,0E0,0E0,0E0,3.15125E5,2.582388E6,2.3630718E6,5.143784E6,8.346736E6,1.430972E6,1.925504E6,3.636512E6,7.382016E6,0E0,0E0,0E0,0E0,0E0,0E0,0E0,0E0,0E0,0E0,0E0,0E0,0E0,0E0,0E0,0E0,0E0,0E0],"parents":[2147483647,0,0,1,1,2,2,4,4,5,5,6,6,7,7,8,8,9,9,10,10,11,11,13,13,17,17,18,18,19,19,20,20,24,24,25,25,26,26,27,27,28,28,29,29,30,30,31,31,32,32],"right_children":[2,4,6,-1,8,10,12,14,16,18,20,22,-1,24,-1,-1,-1,26,28,30,32,-1,-1,-1,34,36,38,40,42,44,46,48,50,-1,-1,-1,-1,-1,-1,-1,-1,-1,-1,-1,-1,-1,-1,-1,-1,-1,-1],"split_conditions":[8E0,5.3839585E3,5.3839585E3,-9.60198E1,6.4083335E3,9E0,9E0,5.3116665E3,5.445E3,3.36E3,2E1,5.7858335E3,7.441734E1,5.185E3,8.061192E1,1.4061511E1,5.4972218E1,1.075E3,2.55E2,2.8166666E2,7.85E2,4.9283947E1,1.1551139E1,6.944631E1,4.745E3,3.2254167E3,9.016667E2,3.66125E3,3.42375E3,1E1,3.15125E3,5E0,4.0666666E2,5.258228E0,4.084396E1,5.175712E1,3.282725E1,-4.5186744E0,3.9563736E1,4.5493008E1,3.287462E-1,9.215453E1,5.803309E1,8.099687E1,2.1650505E1,8.4657776E1,4.111957E1,3.9779987E1,3.1426558E1,7.823065E1,4.2604153E1],"split_indices":[0,7,7,0,6,0,0,6,4,7,4,7,0,6,0,0,0,4,4,6,4,0,0,0,4,7,6,7,7,4,7,1,6,0,0,0,0,0,0,0,0,0,0,0,0,0,0,0,0,0,0],"split_type":[0,0,0,0,0,0,0,0,0,0,0,0,0,0,0,0,0,0,0,0,0,0,0,0,0,0,0,0,0,0,0,0,0,0,0,0,0,0,0,0,0,0,0,0,0,0,0,0,0,0,0],"sum_hessian":[1.7237E4,5.69E3,1.1547E4,5.434E3,2.56E2,1.1009E4,5.38E2,2.38E2,1.8E1,2.91E2,1.0718E4,5E0,5.33E2,3.5E1,2.03E2,1E0,1.7E1,1.07E2,1.84E2,6.3E1,1.0655E4,3E0,2E0,2.4E1,1.1E1,9.2E1,1.5E1,3.7E1,1.47E2,2.1E1,4.2E1,6.23E2,1.0032E4,1E0,1E1,3.7E1,5.5E1,1.2E1,3E0,2.9E1,8E0,2.5E1,1.22E2,1.9E1,2E0,3E0,3.9E1,3.77E2,2.46E2,1.5E1,1.0017E4],"tree_param":{"num_deleted":"0","num_feature":"8","num_nodes":"51","size_leaf_vector":"1"}},{"base_weights":[9.483289E0,-1.8139974E3,8.500052E2,-9.104154E1,-1.2648419E3,8.2052203E2,1.0462108E3,-1.4887235E3,4.1799142E2,7.8568536E2,8.660104E2,8.3989044E2,1.1138384E3,-1.5388036E3,3.9154083E1,9.341342E2,-4.6072058E2,6.224804E2,7.9263385E2,8.4358124E2,1.014439E3,8.642399E2,1.5066365E1,1.0083574E3,1.2134784E3,-1.6974479E3,-9.3913116E2,7.6904335E1,-1.8251384E2,-3.9609043E1,1.3341504E1,5.0149564E2,8.142871E2,8.1643787E2,7.6336365E2,8.4735016E2,5.2684937E2,1.1668994E3,8.839263E2,9.608604E2,7.227721E2,-5.179831E2,6.053305E1,1.2451211E3,9.39118E2,1.0131984E3,1.2564305E3,-4.2345085E1,-9.00631E1,-8.451477E0,-7.168755E1,1.5143244E1,-2.8831781E1,2.8476728E1,-1.6438559E0,4.320993E1,4.238067E0,3.7505077E1,4.333283E1,3.295767E1,3.9179703E1,6.134155E1,4.2200695E1,1.6000374E1,4.2690388E1,6.730628E1,5.4938263E1,4.4839767E1,-3.7669434E1,4.9055775E1,-1.8403183E1,7.349113E0,4.4167477E1,-3.637488E1,-3.7107759E0,6.627496E1,4.7320354E1,1.9387115E1,4.8422955E1,2.7887278E1,5.456479E1,7.165944E1,6.0847775E1],"categories":[],"categories_nodes":[],"categories_segments":[],"categories_sizes":[],"default_left":[0,0,0,0,0,0,0,0,0,0,0,0,0,0,0,0,0,0,0,0,0,0,0,0,0,0,0,0,0,0,0,0,0,0,0,0,0,0,0,0,0,0,0,0,0,0,0,0,0,0,0,0,0,0,0,0,0,0,0,0,0,0,0,0,0,0,0,0,0,0,0,0,0,0,0,0,0,0,0,0,0,0,0],"id":9,"left_children":[1,3,5,-1,7,9,11,13,15,17,19,21,23,25,-1,27,29,31,33,35,37,39,41,43,45,47,49,-1,51,-1,-1,53,55,57,59,61,63,65,67,69,71,73,-1,75,77,79,81,-1,-1,-1,-1,-1,-1,-1,-1,-1,-1,-1,-1,-1,-1,-1,-1,-1,-1,-1,-1,-1,-1,-1,-1,-1,-1,-1,-1,-1,-1,-1,-1,-1,-1,-1,-1],"loss_changes":[2.6372755E10,1.8071552E7,6.727475E7,0E0,2.6995144E7,1.5552512E7,2.0482176E7,8.258896E6,4.512243E6,6.097408E6,1.3902336E7,7.679136E6,1.0894464E7,4.209072E6,0E0,4.3271355E6,1.1759942E6,5.207416E6,3.258624E6,4.157696E6,1.0449728E7,4.390272E6,8.274835E6,8.109376E6,3.785216E6,2.624544E6,5.471267E6,0E0,7.485376E5,0E0,0E0,5.5088E6,3.276632E6,9.537024E6,4.783488E6,3.788032E6,2.972953E6,1.732544E6,7.312896E6,6.229104E6,1.4201288E7,7.8279025E5,0E0,1.7468E6,6.775168E6,3.268432E6,1.60512E6,0E0,0E0,0E0,0E0,0E0,0E0,0E0,0E0,0E0,0E0,0E0,0E0,0E0,0E0,0E0,0E0,0E0,0E0,0E0,0E0,0E0,0E0,0E0,0E0,0E0,0E0,0E0,0E0,0E0,0E0,0E0,0E0,0E0,0E0,0E0,0E0],"parents":[2147483647,0,0,1,1,2,2,4,4,5,5,6,6,7,7,8,8,9,9,10,10,11,11,12,12,13,13,15,15,16,16,17,17,18,18,19,19,20,20,21,21,22,22,23,23,24,24,25,25,26,26,28,28,31,31,32,32,33,33,34,34,35,35,36,36,37,37,38,38,39,39,40,40,41,41,43,43,44,44,45,45,46,46],"right_children":[2,4,6,-1,8,10,12,14,16,18,20,22,24,26,-1,28,30,32,34,36,38,40,42,44,46,48,50,-1,52,-1,-1,54,56,58,60,62,64,66,68,70,72,74,-1,76,78,80,82,-1,-1,-1,-1,-1,-1,-1,-1,-1,-1,-1,-1,-1,-1,-1,-1,-1,-1,-1,-1,-1,-1,-1,-1,-1,-1,-1,-1,-1,-1,-1,-1,-1,-1,-1,-1],"split_conditions":[2.26E3,1.725E3,5.525E3,-9.104154E1,5.86E3,5.045E3,4.405E3,5.3116665E3,6.1E3,2.865E3,5.17E3,7.63E3,5.8333335E3,3.65E3,3.9154083E1,7E0,6.48E3,4.5066665E3,4.22E3,7.53E3,5.815E3,5.8633335E3,6.3E3,5.59E3,1E0,4E0,4.63E3,7.6904335E1,5.88E3,-3.9609043E1,1.3341504E1,5.61E3,5.4316665E3,3.615E3,4.365E3,1E1,7E0,4.86E3,7.63E3,7.37E3,5.965E3,5.8633335E3,6.053305E1,6E0,4.155E3,4.84E3,4.94E3,-4.2345085E1,-9.00631E1,-8.451477E0,-7.168755E1,1.5143244E1,-2.8831781E1,2.8476728E1,-1.6438559E0,4.320993E1,4.238067E0,3.7505077E1,4.333283E1,3.295767E1,3.9179703E1,6.134155E1,4.2200695E1,1.6000374E1,4.2690388E1,6.730628E1,5.4938263E1,4.4839767E1,-3.7669434E1,4.9055775E1,-1.8403183E1,7.349113E0,4.4167477E1,-3.637488E1,-3.7107759E0,6.627496E1,4.7320354E1,1.9387115E1,4.8422955E1,2.7887278E1,5.456479E1,7.165944E1,6.0847775E1],"split_indices":[5,5,6,0,4,5,5,6,4,5,6,4,6,4,0,2,4,6,5,5,5,6,6,6,1,2,6,0,4,0,0,4,6,5,5,4,2,4,4,4,6,6,0,1,4,5,5,0,0,0,0,0,0,0,0,0,0,0,0,0,0,0,0,0,0,0,0,0,0,0,0,0,0,0,0,0,0,0,0,0,0,0,0],"split_type":[0,0,0,0,0,0,0,0,0,0,0,0,0,0,0,0,0,0,0,0,0,0,0,0,0,0,0,0,0,0,0,0,0,0,0,0,0,0,0,0,0,0,0,0,0,0,0,0,0,0,0,0,0,0,0,0,0,0,0,0,0,0,0,0,0,0,0,0,0,0,0,0,0,0,0,0,0,0,0,0,0,0,0],"sum_hessian":[1.7205E4,5.428E3,1.1777E4,5.359E3,6.9E1,1.0243E4,1.534E3,6.1E1,8E0,5.811E3,4.432E3,3.82E2,1.152E3,6E1,1E0,5E0,3E0,2.41E2,5.57E3,3.856E3,5.76E2,3.71E2,1.1E1,5.65E2,5.87E2,4.6E1,1.4E1,3E0,2E0,2E0,1E0,1.5E2,9.1E1,3.057E3,2.513E3,3.809E3,4.7E1,2.62E2,3.14E2,2.17E2,1.54E2,8E0,3E0,1.24E2,4.41E2,1.08E2,4.79E2,6E0,4E1,6E0,8E0,1E0,1E0,1.33E2,1.7E1,8.5E1,6E0,1.324E3,1.733E3,4.14E2,2.099E3,3E1,3.779E3,3E1,1.7E1,6.7E1,1.95E2,3.12E2,2E0,2.14E2,3E0,3.4E1,1.2E2,5E0,3E0,9.5E1,2.9E1,2.3E1,4.18E2,1.7E1,9.1E1,8.1E1,3.98E2],"tree_param":{"num_deleted":"0","num_feature":"8","num_nodes":"83","size_leaf_vector":"1"}},{"base_weights":[3.417416E0,-1.7233972E3,8.1224756E2,-1.7302334E3,1.0672843E3,7.7030457E2,1.383052E3,-8.65396E1,3.3007698E1,1.9205576E2,1.3981702E3,6.354348E2,7.7307666E2,1.5025763E3,1.3599255E3,-2.4677962E2,5.6687256E2,1.8515083E1,1.6088495E3,7.558496E2,4.1622543E2,8.7593384E2,7.6429944E2,1.6245468E3,1.2993269E3,9.046098E2,6.8268555E1,-3.473053E0,-1.50354185E1,3.5784725E1,6.730719E0,6.32768E2,9.143743E1,1.082732E3,6.152194E2,7.7559753E2,3.372771E2,7.3505707E2,9.6122095E2,6.0321893E2,7.6780145E2,1.436707E3,1.0158512E2,1.9039703E3,1.1736034E3,1.0771257E3,-2.0513746E1,3.8175232E1,9.282367E0,3.2064228E1,6.935488E1,2.4389965E1,5.310923E1,4.9268654E1,-1.610186E1,-2.3165686E1,2.0353127E1,4.18803E1,2.043918E1,6.9865776E1,4.69927E1,3.3990887E1,7.315961E0,3.528137E1,3.8632195E1,2.890338E1,7.297457E1,2.3490503E1,1.03234764E2,6.1809017E1,1.1939447E1,1.6373414E0,5.9476467E1],"categories":[],"categories_nodes":[],"categories_segments":[],"categories_sizes":[],"default_left":[0,0,0,0,0,0,0,0,0,0,0,0,0,0,0,0,0,0,0,0,0,0,0,0,0,0,0,0,0,0,0,0,0,0,0,0,0,0,0,0,0,0,0,0,0,0,0,0,0,0,0,0,0,0,0,0,0,0,0,0,0,0,0,0,0,0,0,0,0,0,0,0,0],"id":10,"left_children":[1,3,5,7,9,11,13,-1,-1,15,17,19,21,23,25,27,29,-1,31,33,35,37,39,41,43,45,-1,-1,-1,-1,-1,47,-1,49,51,53,55,57,59,61,63,65,-1,67,69,71,-1,-1,-1,-1,-1,-1,-1,-1,-1,-1,-1,-1,-1,-1,-1,-1,-1,-1,-1,-1,-1,-1,-1,-1,-1,-1,-1],"loss_changes":[2.3977148E10,1.0631475E8,2.788311E8,8.436736E6,3.785883E6,3.58144E6,1.65248E5,0E0,0E0,9.6230694E5,1.569748E6,5.624504E6,8.96256E6,8.64032E5,4.50816E5,7.800172E3,9.664575E4,0E0,5.59942E5,5.953496E6,2.064899E6,9.28992E6,5.087232E6,2.51112E6,1.566384E6,2.937141E6,0E0,0E0,0E0,0E0,0E0,3.36225E4,0E0,4.753652E6,5.347964E6,3.540924E6,4.043599E6,1.0297552E7,3.485472E6,7.390088E6,2.35264E6,1.73624E5,0E0,6.43522E5,2.27872E6,1.134967E6,0E0,0E0,0E0,0E0,0E0,0E0,0E0,0E0,0E0,0E0,0E0,0E0,0E0,0E0,0E0,0E0,0E0,0E0,0E0,0E0,0E0,0E0,0E0,0E0,0E0,0E0,0E0],"parents":[2147483647,0,0,1,1,2,2,3,3,4,4,5,5,6,6,9,9,10,10,11,11,12,12,13,13,14,14,15,15,16,16,18,18,19,19,20,20,21,21,22,22,23,23,24,24,25,25,31,31,33,33,34,34,35,35,36,36,37,37,38,38,39,39,40,40,41,41,43,43,44,44,45,45],"right_children":[2,4,6,8,10,12,14,-1,-1,16,18,20,22,24,26,28,30,-1,32,34,36,38,40,42,44,46,-1,-1,-1,-1,-1,48,-1,50,52,54,56,58,60,62,64,66,-1,68,70,72,-1,-1,-1,-1,-1,-1,-1,-1,-1,-1,-1,-1,-1,-1,-1,-1,-1,-1,-1,-1,-1,-1,-1,-1,-1,-1,-1],"split_conditions":[2.26E3,8E0,5.3839585E3,5.3839585E3,4.155E3,3.0375E3,4.945E3,-8.65396E1,3.3007698E1,3.4154167E3,1.6E1,1.9E1,3.1752083E3,5.975E3,5E3,1E1,1E1,1.8515083E1,4.325E3,5E0,3.085E3,3.98E3,2.865E3,4.78E3,4.155E3,2.2E1,6.8268555E1,-3.473053E0,-1.50354185E1,3.5784725E1,6.730719E0,1.8E1,9.143743E1,3.69E3,4.72E3,3.0170833E3,3.205E3,2E1,3.0514583E3,5.955E3,7.15E2,4.485E3,1.0158512E2,4E0,5.8789585E3,4E0,-2.0513746E1,3.8175232E1,9.282367E0,3.2064228E1,6.935488E1,2.4389965E1,5.310923E1,4.9268654E1,-1.610186E1,-2.3165686E1,2.0353127E1,4.18803E1,2.043918E1,6.9865776E1,4.69927E1,3.3990887E1,7.315961E0,3.528137E1,3.8632195E1,2.890338E1,7.297457E1,2.3490503E1,1.03234764E2,6.1809017E1,1.1939447E1,1.6373414E0,5.9476467E1],"split_indices":[5,0,7,7,4,7,4,0,0,7,0,0,7,5,4,0,0,0,4,2,4,5,5,4,4,0,0,0,0,0,0,0,0,4,5,7,4,0,7,4,4,5,0,2,7,2,0,0,0,0,0,0,0,0,0,0,0,0,0,0,0,0,0,0,0,0,0,0,0,0,0,0,0],"split_type":[0,0,0,0,0,0,0,0,0,0,0,0,0,0,0,0,0,0,0,0,0,0,0,0,0,0,0,0,0,0,0,0,0,0,0,0,0,0,0,0,0,0,0,0,0,0,0,0,0,0,0,0,0,0,0,0,0,0,0,0,0,0,0,0,0,0,0,0,0,0,0,0,0],"sum_hessian":[1.7165E4,5.475E3,1.169E4,5.462E3,1.3E1,1.0892E4,7.98E2,5.461E3,1E0,4E0,9E0,2.24E2,1.0668E4,1.19E2,6.79E2,2E0,2E0,2E0,7E0,1.43E2,8.1E1,8.31E2,9.837E3,7E1,4.9E1,1E1,6.69E2,1E0,1E0,1E0,1E0,2E0,5E0,4.1E1,1.02E2,1.3E1,6.8E1,3.17E2,5.14E2,2.13E2,9.624E3,5.1E1,1.9E1,6E0,4.3E1,9E0,1E0,1E0,1E0,1.8E1,2.3E1,8.1E1,2.1E1,1.1E1,2E0,5E0,6.3E1,2.4E2,7.7E1,2.1E1,4.93E2,1.82E2,3.1E1,7.06E2,8.918E3,2E0,4.9E1,1E0,5E0,4E1,3E0,1E0,8E0],"tree_param":{"num_deleted":"0","num_feature":"8","num_nodes":"73","size_leaf_vector":"1"}},{"base_weights":[4.5315737E-1,-1.5083928E3,7.551402E2,-8.244879E1,1.3218014E3,7.2941864E2,1.2713147E3,1.2536672E3,1.4561459E3,7.4212195E2,6.8535156E2,7.8010416E0,1.2751636E3,1.3353833E3,9.5774066E2,1.5394369E3,1.1476565E3,7.4615015E2,5.670967E2,1.2801982E3,6.791844E2,1.3796598E3,1.2438877E3,1.1283201E3,1.4068519E3,9.183021E0,9.714714E2,7.2615944E1,1.0697625E2,1.301637E3,6.317501E2,8.763219E2,7.413116E2,6.843459E2,3.3463406E2,1.3586572E3,-1.3108924E1,5.940177E2,7.112746E2,9.278013E2,1.4281534E3,7.175225E2,1.2627247E3,6.0130013E1,3.3115208E1,7.099556E1,2.4912062E1,4.2679417E1,6.3756325E1,4.278683E1,8.202853E1,4.5280643E0,3.534274E1,2.8731873E1,5.1724957E1,3.3036148E1,3.758259E1,-1.3780884E1,3.6280483E1,-4.360152E0,2.3990137E1,4.4042416E1,8.014512E1,3.135904E1,1.6328474E1,3.6204945E1,1.98272E1,5.455432E1,-1.7303222E0,8.352716E1,6.3223858E1,-6.413452E0,3.8920067E1,3.0418081E1,6.3384274E1],"categories":[],"categories_nodes":[],"categories_segments":[],"categories_sizes":[],"default_left":[0,0,0,0,0,0,0,0,0,0,0,0,0,0,0,0,0,0,0,0,0,0,0,0,0,0,0,0,0,0,0,0,0,0,0,0,0,0,0,0,0,0,0,0,0,0,0,0,0,0,0,0,0,0,0,0,0,0,0,0,0,0,0,0,0,0,0,0,0,0,0,0,0,0,0],"id":11,"left_children":[1,3,5,-1,7,9,11,13,15,17,19,-1,21,23,25,27,29,31,33,35,37,39,41,43,45,-1,47,-1,-1,49,51,53,55,57,59,61,-1,63,65,67,69,71,73,-1,-1,-1,-1,-1,-1,-1,-1,-1,-1,-1,-1,-1,-1,-1,-1,-1,-1,-1,-1,-1,-1,-1,-1,-1,-1,-1,-1,-1,-1,-1,-1],"loss_changes":[1.9518568E10,2.276048E9,1.5077376E8,0E0,6.55072E5,5.585408E6,2.123328E6,3.24304E6,4.1728E5,5.526528E6,8.114816E6,0E0,4.5504E4,5.43616E5,2.8924E5,2.38544E5,9.2536E5,4.543488E6,5.058668E6,3.260532E6,6.207744E6,1.19488E6,3.307904E6,6.5738E5,5.1472E5,0E0,4.50788E5,0E0,0E0,1.014192E6,2.2050675E5,1.3244224E7,6.133248E6,5.270284E6,4.1447545E6,1.27224E6,0E0,5.737696E6,6.80448E6,2.237815E6,1.93432E6,9.75187E5,5.56416E5,0E0,0E0,0E0,0E0,0E0,0E0,0E0,0E0,0E0,0E0,0E0,0E0,0E0,0E0,0E0,0E0,0E0,0E0,0E0,0E0,0E0,0E0,0E0,0E0,0E0,0E0,0E0,0E0,0E0,0E0,0E0,0E0],"parents":[2147483647,0,0,1,1,2,2,4,4,5,5,6,6,7,7,8,8,9,9,10,10,12,12,13,13,14,14,15,15,16,16,17,17,18,18,19,19,20,20,21,21,22,22,23,23,24,24,26,26,29,29,30,30,31,31,32,32,33,33,34,34,35,35,37,37,38,38,39,39,40,40,41,41,42,42],"right_children":[2,4,6,-1,8,10,12,14,16,18,20,-1,22,24,26,28,30,32,34,36,38,40,42,44,46,-1,48,-1,-1,50,52,54,56,58,60,62,-1,64,66,68,70,72,74,-1,-1,-1,-1,-1,-1,-1,-1,-1,-1,-1,-1,-1,-1,-1,-1,-1,-1,-1,-1,-1,-1,-1,-1,-1,-1,-1,-1,-1,-1,-1,-1],"split_conditions":[8E0,5.3839585E3,5.3839585E3,-8.244879E1,6.15E3,2.1E1,9E0,5.895E3,7.015E3,3.811875E3,2.6E3,7.8010416E0,5.115E3,5.3116665E3,4.64E3,6.805E3,1E0,9E0,6E0,7E0,4.43E3,1E1,5.19E3,5.365E3,6.08E3,9.183021E0,7E0,7.2615944E1,1.0697625E2,7.21E3,2E0,3.334375E3,9.283333E2,6.85E2,3.83E3,3.3122917E3,-1.3108924E1,4.375E3,7.015E3,5.84375E3,5E0,5.5483335E3,5.0016665E3,6.0130013E1,3.3115208E1,7.099556E1,2.4912062E1,4.2679417E1,6.3756325E1,4.278683E1,8.202853E1,4.5280643E0,3.534274E1,2.8731873E1,5.1724957E1,3.3036148E1,3.758259E1,-1.3780884E1,3.6280483E1,-4.360152E0,2.3990137E1,4.4042416E1,8.014512E1,3.135904E1,1.6328474E1,3.6204945E1,1.98272E1,5.455432E1,-1.7303222E0,8.352716E1,6.3223858E1,-6.413452E0,3.8920067E1,3.0418081E1,6.3384274E1],"split_indices":[0,7,7,0,4,0,0,6,4,7,4,0,4,6,4,4,3,0,2,2,6,0,4,4,4,0,2,0,0,4,0,7,6,4,7,7,0,6,4,7,2,7,6,0,0,0,0,0,0,0,0,0,0,0,0,0,0,0,0,0,0,0,0,0,0,0,0,0,0,0,0,0,0,0,0],"split_type":[0,0,0,0,0,0,0,0,0,0,0,0,0,0,0,0,0,0,0,0,0,0,0,0,0,0,0,0,0,0,0,0,0,0,0,0,0,0,0,0,0,0,0,0,0,0,0,0,0,0,0,0,0,0,0,0,0,0,0,0,0,0,0,0,0,0,0,0,0,0,0,0,0,0,0],"sum_hessian":[1.7139E4,5.714E3,1.1425E4,5.444E3,2.7E2,1.0885E4,5.4E2,1.86E2,8.4E1,8.437E3,2.448E3,2E0,5.38E2,1.43E2,4.3E1,6.3E1,2.1E1,8.244E3,1.93E2,2.3E1,2.425E3,1.14E2,4.24E2,4.1E1,1.02E2,1E0,4.2E1,5.8E1,5E0,1.5E1,6E0,2.89E2,7.955E3,1.27E2,6.6E1,2.2E1,1E0,6.69E2,1.756E3,1.3E1,1.01E2,1.6E1,4.08E2,3.4E1,7E0,1E2,2E0,3.3E1,9E0,8E0,7E0,1E0,5E0,1.01E2,1.88E2,9.12E2,7.043E3,5E0,1.22E2,1.7E1,4.9E1,9E0,1.3E1,5.94E2,7.5E1,1.686E3,7E1,1.1E1,2E0,3.7E1,6.4E1,1E0,1.5E1,4E0,4.04E2],"tree_param":{"num_deleted":"0","num_feature":"8","num_nodes":"75","size_leaf_vector":"1"}},{"base_weights":[-1.4045488E0,-1.5613175E3,7.2483966E2,-1.5676378E3,-1.0580854E3,6.853041E2,1.2529475E3,-7.840791E1,3.1115515E1,-1.2798373E3,6.117424E2,6.8852576E2,5.44149E2,1.2756671E3,1.1621797E3,6.305511E2,-1.3858658E3,1.2381375E3,-4.8078583E2,4.7833942E2,6.9078485E2,5.0890503E0,5.690422E2,1.2504562E3,1.4169604E3,9.7036E1,1.1132632E3,-3.054288E2,8.596227E1,-4.6185583E2,-7.495953E1,6.894336E1,1.336222E1,1.1605524E1,-3.9789406E1,7.005493E2,1.5566953E2,6.698686E2,7.0911523E2,2.3285631E2,-5.0865955E2,8.6485754E2,4.8975797E2,6.2962982E1,4.9111188E2,1.0830894E3,1.5502719E3,1.1720099E3,7.143974E2,8.110743E0,-3.1017902E1,2.626181E1,-5.7957916E1,2.4910635E1,4.5946598E1,-4.441397E0,2.1796003E1,3.3896877E1,2.3242537E1,4.097716E1,3.4968605E1,1.8829554E1,-2.047995E0,-5.4714966E0,-3.0262974E1,2.3387808E1,4.7734234E1,1.0969281E1,3.1429825E1,3.4818874E1,-2.364369E1,6.496409E1,1.7658712E1,8.453667E1,5.7169964E1,5.114807E0,5.970221E1,1.39902525E1,5.30303E1],"categories":[],"categories_nodes":[],"categories_segments":[],"categories_sizes":[],"default_left":[0,0,0,0,0,0,0,0,0,0,0,0,0,0,0,0,0,0,0,0,0,0,0,0,0,0,0,0,0,0,0,0,0,0,0,0,0,0,0,0,0,0,0,0,0,0,0,0,0,0,0,0,0,0,0,0,0,0,0,0,0,0,0,0,0,0,0,0,0,0,0,0,0,0,0,0,0,0,0],"id":12,"left_children":[1,3,5,7,9,11,13,-1,-1,15,17,19,21,23,25,27,29,31,33,35,37,39,41,43,45,-1,47,49,-1,51,-1,-1,-1,-1,-1,53,55,57,59,61,63,65,67,-1,69,71,73,75,77,-1,-1,-1,-1,-1,-1,-1,-1,-1,-1,-1,-1,-1,-1,-1,-1,-1,-1,-1,-1,-1,-1,-1,-1,-1,-1,-1,-1,-1,-1],"loss_changes":[1.9528544E10,1.5758336E7,2.4472064E8,7.135232E6,2.7073336E7,4.602368E6,2.04288E5,0E0,0E0,1.3634872E7,6.754467E6,4.749312E6,3.338416E6,5.22176E5,4.504064E6,4.60109E6,5.590384E6,4.51307E5,1.0829665E6,8.2799E6,3.580928E6,1.522626E6,5.15836E6,3.091648E6,2.326704E6,0E0,3.075888E6,5.4245525E5,0E0,6.1152455E6,0E0,0E0,0E0,0E0,0E0,2.591064E6,3.3962285E6,7.890176E6,5.47584E6,3.696373E5,8.802875E4,1.301292E6,6.994332E6,0E0,1.9122838E6,4.117388E6,1.610112E6,3.271984E6,3.314267E6,0E0,0E0,0E0,0E0,0E0,0E0,0E0,0E0,0E0,0E0,0E0,0E0,0E0,0E0,0E0,0E0,0E0,0E0,0E0,0E0,0E0,0E0,0E0,0E0,0E0,0E0,0E0,0E0,0E0,0E0],"parents":[2147483647,0,0,1,1,2,2,3,3,4,4,5,5,6,6,9,9,10,10,11,11,12,12,13,13,14,14,15,15,16,16,17,17,18,18,19,19,20,20,21,21,22,22,23,23,24,24,26,26,27,27,29,29,35,35,36,36,37,37,38,38,39,39,40,40,41,41,42,42,44,44,45,45,46,46,47,47,48,48],"right_children":[2,4,6,8,10,12,14,-1,-1,16,18,20,22,24,26,28,30,32,34,36,38,40,42,44,46,-1,48,50,-1,52,-1,-1,-1,-1,-1,54,56,58,60,62,64,66,68,-1,70,72,74,76,78,-1,-1,-1,-1,-1,-1,-1,-1,-1,-1,-1,-1,-1,-1,-1,-1,-1,-1,-1,-1,-1,-1,-1,-1,-1,-1,-1,-1,-1,-1],"split_conditions":[2.26E3,1.725E3,5.3839585E3,5.3839585E3,5.86E3,3.811875E3,6E0,-7.840791E1,3.1115515E1,3.1752083E3,6.1E3,2.9941667E3,6.85E2,6.69E3,5.1216665E3,4.325E3,4E0,7E0,1E0,4.01E3,4.67E3,5E0,3.4533333E3,6.645E3,5.965E3,9.7036E1,6.48E3,1E0,8.596227E1,7E2,-7.495953E1,6.894336E1,1.336222E1,1.1605524E1,-3.9789406E1,4.26E3,4.86E3,4.61E3,3.195E3,7.333333E2,2E2,1E0,4.975E3,6.2962982E1,5.755E3,5.895E3,6.555E3,5.1533335E3,6.865E3,8.110743E0,-3.1017902E1,2.626181E1,-5.7957916E1,2.4910635E1,4.5946598E1,-4.441397E0,2.1796003E1,3.3896877E1,2.3242537E1,4.097716E1,3.4968605E1,1.8829554E1,-2.047995E0,-5.4714966E0,-3.0262974E1,2.3387808E1,4.7734234E1,1.0969281E1,3.1429825E1,3.4818874E1,-2.364369E1,6.496409E1,1.7658712E1,8.453667E1,5.7169964E1,5.114807E0,5.970221E1,1.39902525E1,5.30303E1],"split_indices":[5,5,7,7,4,7,1,0,0,7,4,7,4,4,6,4,2,2,1,4,5,1,6,4,6,0,4,1,0,6,0,0,0,0,0,5,4,5,7,6,4,1,6,0,5,6,6,6,4,0,0,0,0,0,0,0,0,0,0,0,0,0,0,0,0,0,0,0,0,0,0,0,0,0,0,0,0,0,0],"split_type":[0,0,0,0,0,0,0,0,0,0,0,0,0,0,0,0,0,0,0,0,0,0,0,0,0,0,0,0,0,0,0,0,0,0,0,0,0,0,0,0,0,0,0,0,0,0,0,0,0,0,0,0,0,0,0,0,0,0,0,0,0,0,0,0,0,0,0,0,0,0,0,0,0,0,0,0,0,0,0],"sum_hessian":[1.7236E4,5.475E3,1.1761E4,5.405E3,7E1,1.0944E4,8.17E2,5.404E3,1E0,6.2E1,8E0,1.0696E4,2.48E2,6.43E2,1.74E2,3E0,5.9E1,5E0,3E0,1.16E2,1.058E4,1.1E1,2.37E2,5.54E2,8.9E1,8E0,1.66E2,2E0,1E0,7E0,5.2E1,4E0,1E0,1E0,2E0,6.8E1,4.8E1,4.959E3,5.621E3,8E0,3E0,4.8E1,1.89E2,5.47E2,7E0,2.8E1,6.1E1,1.43E2,2.3E1,1E0,1E0,3E0,4E0,3.7E1,3.1E1,2.6E1,2.2E1,4.769E3,1.9E2,4.49E2,5.172E3,5E0,3E0,1E0,2E0,1E1,3.8E1,6.5E1,1.24E2,6E0,1E0,2.1E1,7E0,4.3E1,1.8E1,3E0,1.4E2,1.1E1,1.2E1],"tree_param":{"num_deleted":"0","num_feature":"8","num_nodes":"79","size_leaf_vector":"1"}},{"base_weights":[-3.0298822E0,-1.4847864E3,6.925531E2,-7.448632E1,-1.0907767E3,6.665799E2,8.6774506E2,-1.2817565E3,8.6571466E2,6.551713E2,7.4766284E2,6.998827E2,9.477065E2,-1.3808463E3,-6.0716553E1,1.0958145E3,-1.2872113E1,4.9513733E2,6.5798206E2,8.946044E2,6.465372E2,7.284621E2,1.368812E2,2.7612863E2,9.656527E2,-6.15543E2,-7.265711E1,3.5561016E1,-5.348634E1,7.531317E0,6.273634E1,3.5699423E2,8.071558E2,6.602267E2,4.8077167E2,7.4382666E2,9.6736206E2,5.069506E2,7.750752E2,1.0268387E3,6.8036804E2,-3.1542798E2,3.3030298E2,-4.0946588E2,5.708397E2,9.1600426E1,9.567744E2,-4.9946545E1,1.1430888E1,3.39533E1,1.1814081E1,6.064278E1,2.3702703E1,3.307143E1,1.982569E1,2.7600083E0,3.2673557E1,2.2551268E1,4.649554E1,5.2740643E1,3.7938686E1,-2.1725489E1,2.6204329E1,4.8330135E1,3.3945507E1,5.9696175E1,-5.416393E0,2.9275406E1,4.0699383E1,-2.96434E1,-6.206832E0,2.6980244E1,-8.911747E0,-3.8153908E0,-3.303654E1,4.4507065E1,-9.6901554E-1,1.2657887E1,4.8258736E1],"categories":[],"categories_nodes":[],"categories_segments":[],"categories_sizes":[],"default_left":[0,0,0,0,0,0,0,0,0,0,0,0,0,0,0,0,0,0,0,0,0,0,0,0,0,0,0,0,0,0,0,0,0,0,0,0,0,0,0,0,0,0,0,0,0,0,0,0,0,0,0,0,0,0,0,0,0,0,0,0,0,0,0,0,0,0,0,0,0,0,0,0,0,0,0,0,0,0,0],"id":13,"left_children":[1,3,5,-1,7,9,11,13,15,17,19,21,23,25,27,29,-1,31,33,35,37,39,41,43,45,47,-1,-1,-1,-1,-1,49,51,53,55,57,59,61,63,65,67,69,71,73,75,-1,77,-1,-1,-1,-1,-1,-1,-1,-1,-1,-1,-1,-1,-1,-1,-1,-1,-1,-1,-1,-1,-1,-1,-1,-1,-1,-1,-1,-1,-1,-1,-1,-1],"loss_changes":[1.7786522E10,9.105408E6,5.2859904E7,0E0,2.8012448E7,8.97536E6,1.9644928E7,7.901672E6,2.091177E6,3.712768E6,1.8070336E7,7.816688E6,1.2050752E7,2.480568E6,5.4341645E6,7.122175E5,0E0,6.565256E6,3.190784E6,4.86432E6,1.3009888E7,6.017216E6,2.291348E6,5.8912035E6,5.90048E6,2.4938605E6,0E0,0E0,0E0,0E0,0E0,4.1939E6,5.911726E6,2.49728E6,8.34247E6,8.84316E6,5.401664E6,6.05168E6,6.471616E6,1.2078488E7,4.66952E6,3.5097825E5,2.0120596E6,7.029794E5,3.7864155E6,0E0,5.589376E6,0E0,0E0,0E0,0E0,0E0,0E0,0E0,0E0,0E0,0E0,0E0,0E0,0E0,0E0,0E0,0E0,0E0,0E0,0E0,0E0,0E0,0E0,0E0,0E0,0E0,0E0,0E0,0E0,0E0,0E0,0E0,0E0],"parents":[2147483647,0,0,1,1,2,2,4,4,5,5,6,6,7,7,8,8,9,9,10,10,11,11,12,12,13,13,14,14,15,15,17,17,18,18,19,19,20,20,21,21,22,22,23,23,24,24,25,25,31,31,32,32,33,33,34,34,35,35,36,36,37,37,38,38,39,39,40,40,41,41,42,42,43,43,44,44,46,46],"right_children":[2,4,6,-1,8,10,12,14,16,18,20,22,24,26,28,30,-1,32,34,36,38,40,42,44,46,48,-1,-1,-1,-1,-1,50,52,54,56,58,60,62,64,66,68,70,72,74,76,-1,78,-1,-1,-1,-1,-1,-1,-1,-1,-1,-1,-1,-1,-1,-1,-1,-1,-1,-1,-1,-1,-1,-1,-1,-1,-1,-1,-1,-1,-1,-1,-1,-1],"split_conditions":[2.26E3,1.725E3,5.5466665E3,-7.448632E1,5.015E3,5.17E3,4.67E3,5.86E3,6.1E3,2.79E3,5E0,4.63E3,4.09E3,4E0,4.495E3,3.91E3,-1.2872113E1,4.5233335E3,5.1366665E3,4.38E3,4.915E3,3.235E3,5.6566665E3,1E0,4.685E3,1.01E3,-7.265711E1,3.5561016E1,-5.348634E1,7.531317E0,6.273634E1,1.15E3,4.815E3,7.53E3,4.655E3,5.04E3,5.975E3,3.455E3,5.47E3,6.865E3,5E0,5.175E3,6.48E3,5.595E3,5E0,9.1600426E1,4.72E3,-4.9946545E1,1.1430888E1,3.39533E1,1.1814081E1,6.064278E1,2.3702703E1,3.307143E1,1.982569E1,2.7600083E0,3.2673557E1,2.2551268E1,4.649554E1,5.2740643E1,3.7938686E1,-2.1725489E1,2.6204329E1,4.8330135E1,3.3945507E1,5.9696175E1,-5.416393E0,2.9275406E1,4.0699383E1,-2.96434E1,-6.206832E0,2.6980244E1,-8.911747E0,-3.8153908E0,-3.303654E1,4.4507065E1,-9.6901554E-1,1.2657887E1,4.8258736E1],"split_indices":[5,5,6,0,6,6,5,4,4,5,2,5,4,2,6,4,0,6,6,5,5,5,6,1,5,4,0,0,0,0,0,4,6,5,4,4,5,4,5,4,1,4,4,5,1,0,5,0,0,0,0,0,0,0,0,0,0,0,0,0,0,0,0,0,0,0,0,0,0,0,0,0,0,0,0,0,0,0,0],"split_type":[0,0,0,0,0,0,0,0,0,0,0,0,0,0,0,0,0,0,0,0,0,0,0,0,0,0,0,0,0,0,0,0,0,0,0,0,0,0,0,0,0,0,0,0,0,0,0,0,0,0,0,0,0,0,0,0,0,0,0,0,0,0,0,0,0,0,0,0,0,0,0,0,0,0,0,0,0,0,0],"sum_hessian":[1.7255E4,5.512E3,1.1743E4,5.441E3,7.1E1,1.0231E4,1.512E3,6.5E1,6E0,8.977E3,1.254E3,4.91E2,1.021E3,6E1,5E0,5E0,1E0,1.58E2,8.819E3,5.08E2,7.46E2,4.67E2,2.4E1,2.7E1,9.94E2,6E0,5.4E1,3E0,2E0,1E0,4E0,1.11E2,4.7E1,8.706E3,1.13E2,1.69E2,3.39E2,3.6E2,3.86E2,6.2E1,4.05E2,7E0,1.7E1,8E0,1.9E1,8E0,9.86E2,4E0,2E0,2.9E1,8.2E1,2E1,2.7E1,8.665E3,4.1E1,3.3E1,8E1,6.7E1,1.02E2,2.36E2,1.03E2,6E0,3.54E2,1.26E2,2.6E2,5.4E1,8E0,2.4E2,1.65E2,2E0,5E0,1.2E1,5E0,4E0,4E0,1.2E1,7E0,1.2E1,9.74E2],"tree_param":{"num_deleted":"0","num_feature":"8","num_nodes":"79","size_leaf_vector":"1"}},{"base_weights":[5.376577E0,-1.4073037E3,6.625399E2,-1.4132931E3,8.686192E2,6.2822766E2,1.1345037E3,-7.068938E1,3.2199787E1,3.432378E2,1.4200211E3,6.2940234E2,1.4619719E2,1.1514318E3,9.1525256E2,3.42018E1,4.749546E1,1.5043665E1,9.037528E1,5.7462E2,6.382682E2,4.9795334E2,-1.9185501E2,1.3353158E3,1.1325354E3,7.818377E1,8.435738E2,2.0969088E1,-2.0374654E2,5.899677E2,1.6603741E2,6.1833923E2,6.630815E2,1.139614E3,1.2732768E2,1.0975421E2,-4.6948236E2,1.55458E3,1.0057147E3,1.027591E3,1.1500952E3,-2.6029263E2,8.876457E2,-1.6405676E1,7.343036E0,2.7932098E1,4.5685394E1,1.3046248E1,-1.5301331E1,3.2019085E1,2.706935E1,3.427942E1,2.9331125E1,1.2826502E1,6.481262E1,-2.0403166E1,3.7216568E1,-4.834722E0,1.7018824E1,-2.8459158E1,5.7105837E0,1.3772449E1,7.9162834E1,5.206706E1,1.094983E0,4.71986E1,6.605488E1,6.522357E1,5.601443E1,-2.2526197E1,3.0042481E0,3.9664696E1,7.173903E1],"categories":[],"categories_nodes":[],"categories_segments":[],"categories_sizes":[],"default_left":[0,0,0,0,0,0,0,0,0,0,0,0,0,0,0,0,0,0,0,0,0,0,0,0,0,0,0,0,0,0,0,0,0,0,0,0,0,0,0,0,0,0,0,0,0,0,0,0,0,0,0,0,0,0,0,0,0,0,0,0,0,0,0,0,0,0,0,0,0,0,0,0,0],"id":14,"left_children":[1,3,5,7,9,11,13,-1,-1,15,17,19,21,23,25,27,-1,-1,-1,29,31,33,35,37,39,-1,41,-1,43,45,47,49,51,53,55,57,59,61,63,65,67,69,71,-1,-1,-1,-1,-1,-1,-1,-1,-1,-1,-1,-1,-1,-1,-1,-1,-1,-1,-1,-1,-1,-1,-1,-1,-1,-1,-1,-1,-1,-1],"loss_changes":[1.6020743E10,7.591322E7,1.9002214E8,6.468608E6,3.85804E6,6.126592E6,1.904256E6,0E0,0E0,1.6548609E6,2.491737E6,4.9536E6,3.4250695E6,1.045184E6,1.562568E6,7.270181E5,0E0,0E0,0E0,9.533984E6,4.24832E6,3.184318E6,1.3075522E6,2.98952E6,6.0224E4,0E0,3.052716E6,0E0,2.662068E5,1.449888E7,2.633051E6,8.539776E6,6.794368E6,3.59097E5,3.6071162E6,4.1380572E5,5.305655E5,8.84416E5,9.58594E5,1.354448E6,1.156864E6,2.0990727E5,1.752696E6,0E0,0E0,0E0,0E0,0E0,0E0,0E0,0E0,0E0,0E0,0E0,0E0,0E0,0E0,0E0,0E0,0E0,0E0,0E0,0E0,0E0,0E0,0E0,0E0,0E0,0E0,0E0,0E0,0E0,0E0],"parents":[2147483647,0,0,1,1,2,2,3,3,4,4,5,5,6,6,9,9,10,10,11,11,12,12,13,13,14,14,15,15,19,19,20,20,21,21,22,22,23,23,24,24,26,26,28,28,29,29,30,30,31,31,32,32,33,33,34,34,35,35,36,36,37,37,38,38,39,39,40,40,41,41,42,42],"right_children":[2,4,6,8,10,12,14,-1,-1,16,18,20,22,24,26,28,-1,-1,-1,30,32,34,36,38,40,-1,42,-1,44,46,48,50,52,54,56,58,60,62,64,66,68,70,72,-1,-1,-1,-1,-1,-1,-1,-1,-1,-1,-1,-1,-1,-1,-1,-1,-1,-1,-1,-1,-1,-1,-1,-1,-1,-1,-1,-1,-1,-1],"split_conditions":[2.26E3,8E0,5.3839585E3,5.3839585E3,4.525E3,6.555E3,2.3E1,-7.068938E1,3.2199787E1,3.4172917E3,1.6E1,3.54E3,2.1E1,3E0,5.045E3,3.2641667E3,4.749546E1,1.5043665E1,9.037528E1,6.745E3,4.725E3,6.055E3,6.48E3,5.88E3,5.3116665E3,7.818377E1,5.1533335E3,2.0969088E1,4.975E3,5.525E3,7.63E3,4.27E3,5.3766665E3,1.5E1,7.095E3,2.2E1,2.3E1,4.8533335E3,6.595E3,6E0,5.115E3,4.985E3,5.93125E3,-1.6405676E1,7.343036E0,2.7932098E1,4.5685394E1,1.3046248E1,-1.5301331E1,3.2019085E1,2.706935E1,3.427942E1,2.9331125E1,1.2826502E1,6.481262E1,-2.0403166E1,3.7216568E1,-4.834722E0,1.7018824E1,-2.8459158E1,5.7105837E0,1.3772449E1,7.9162834E1,5.206706E1,1.094983E0,4.71986E1,6.605488E1,6.522357E1,5.601443E1,-2.2526197E1,3.0042481E0,3.9664696E1,7.173903E1],"split_indices":[5,0,7,7,4,6,0,0,0,7,0,5,0,0,6,7,0,0,0,4,4,4,4,5,6,0,6,0,6,6,4,4,6,0,4,0,0,6,4,1,4,4,7,0,0,0,0,0,0,0,0,0,0,0,0,0,0,0,0,0,0,0,0,0,0,0,0,0,0,0,0,0,0],"split_type":[0,0,0,0,0,0,0,0,0,0,0,0,0,0,0,0,0,0,0,0,0,0,0,0,0,0,0,0,0,0,0,0,0,0,0,0,0,0,0,0,0,0,0,0,0,0,0,0,0,0,0,0,0,0,0,0,0,0,0,0,0,0,0,0,0,0,0,0,0,0,0,0,0],"sum_hessian":[1.7255E4,5.478E3,1.1777E4,5.464E3,1.4E1,1.0981E4,7.96E2,5.463E3,1E0,8E0,6E0,1.0954E4,2.7E1,7.35E2,6.1E1,6E0,2E0,2E0,4E0,1.535E3,9.419E3,1.3E1,1.4E1,6.2E1,6.73E2,4E0,5.7E1,2E0,4E0,1.479E3,5.6E1,5.238E3,4.181E3,4E0,9E0,7E0,7E0,3.5E1,2.7E1,1.05E2,5.68E2,2E0,5.5E1,3E0,1E0,1.351E3,1.28E2,4.7E1,9E0,4.066E3,1.172E3,3.224E3,9.57E2,1E0,3E0,5E0,4E0,4E0,3E0,6E0,1E0,1E0,3.4E1,2.6E1,1E0,8.5E1,2E1,8.5E1,4.83E2,1E0,1E0,4.9E1,6E0],"tree_param":{"num_deleted":"0","num_feature":"8","num_nodes":"73","size_leaf_vector":"1"}},{"base_weights":[-4.274818E0,-1.2189928E3,6.1085345E2,-6.7078384E1,1.1061016E3,5.9013165E2,1.0311191E3,1.1253628E3,7.898068E2,6.254959E2,5.7633923E2,1.051488E3,8.878057E2,1.144157E3,8.1587286E2,5.0837766E2,1.02039825E3,6.1504236E2,8.933839E2,5.807945E2,4.43159E2,9.5787067E2,1.099633E3,7.3660205E2,1.1045045E3,1.10319E3,1.5241666E3,5.2363446E2,9.808067E2,7.155624E2,2.164633E2,1.0673118E3,1.4954419E1,6.250201E2,3.6980823E2,1.0967446E3,6.463079E2,5.4801746E2,5.996196E2,3.5142792E2,8.0858844E2,1.0168435E3,8.3468475E2,1.8129721E0,1.1066718E3,8.2871454E2,3.681792E2,6.882147E1,9.26913E2,5.7322803E1,4.516607E1,2.4275053E1,8.6400444E1,-8.5175905E0,3.1583836E1,6.1535694E1,1.1789538E1,5.23418E0,4.084007E1,2.2440638E1,4.011543E0,3.7252438E1,7.317441E1,2.9238977E1,3.3411278E1,2.869546E0,2.2490746E1,7.299748E1,3.7766804E1,1.2799054E1,3.96824E1,2.8723621E1,2.0759497E1,2.3496943E1,3.0331623E1,1.5617927E1,4.352534E1,5.5728634E1,9.284842E0,5.2969276E1,1.2887985E1,3.092703E1,5.5194958E1,5.8847534E1,4.824667E1,2.3376646E1,4.5760586E1,-8.337289E0,2.5278936E1,1.3625806E1,5.1318226E1],"categories":[],"categories_nodes":[],"categories_segments":[],"categories_sizes":[],"default_left":[0,0,0,0,0,0,0,0,0,0,0,0,0,0,0,0,0,0,0,0,0,0,0,0,0,0,0,0,0,0,0,0,0,0,0,0,0,0,0,0,0,0,0,0,0,0,0,0,0,0,0,0,0,0,0,0,0,0,0,0,0,0,0,0,0,0,0,0,0,0,0,0,0,0,0,0,0,0,0,0,0,0,0,0,0,0,0,0,0,0,0],"id":15,"left_children":[1,3,5,-1,7,9,11,13,15,17,19,21,23,25,27,29,31,33,35,37,39,41,43,45,47,49,51,53,55,57,59,61,-1,63,65,67,69,71,73,75,77,79,81,-1,83,85,87,-1,89,-1,-1,-1,-1,-1,-1,-1,-1,-1,-1,-1,-1,-1,-1,-1,-1,-1,-1,-1,-1,-1,-1,-1,-1,-1,-1,-1,-1,-1,-1,-1,-1,-1,-1,-1,-1,-1,-1,-1,-1,-1,-1],"loss_changes":[1.284748E10,1.6487726E9,9.879219E7,0E0,8.7792E5,4.946176E6,6.28224E5,6.42816E5,7.79156E5,7.966592E6,4.394496E6,1.033536E6,1.578308E6,2.257248E6,4.02216E5,5.1038925E5,1.9171E4,6.938112E6,4.918656E6,4.350208E6,8.36432E6,3.49904E5,2.197792E6,1.255958E6,7.6332E4,9.70592E5,3.818976E6,7.8242575E5,1.757842E6,2.85563E5,1.5391253E5,5.8687E4,0E0,4.50176E6,2.898655E6,6.337328E6,2.844914E6,9.523264E6,4.085504E6,3.94635E6,9.513372E6,3.18228E6,2.750352E6,0E0,1.822816E6,6.96792E5,8.927861E5,0E0,1.021912E6,0E0,0E0,0E0,0E0,0E0,0E0,0E0,0E0,0E0,0E0,0E0,0E0,0E0,0E0,0E0,0E0,0E0,0E0,0E0,0E0,0E0,0E0,0E0,0E0,0E0,0E0,0E0,0E0,0E0,0E0,0E0,0E0,0E0,0E0,0E0,0E0,0E0,0E0,0E0,0E0,0E0,0E0],"parents":[2147483647,0,0,1,1,2,2,4,4,5,5,6,6,7,7,8,8,9,9,10,10,11,11,12,12,13,13,14,14,15,15,16,16,17,17,18,18,19,19,20,20,21,21,22,22,23,23,24,24,25,25,26,26,27,27,28,28,29,29,30,30,31,31,33,33,34,34,35,35,36,36,37,37,38,38,39,39,40,40,41,41,42,42,44,44,45,45,46,46,48,48],"right_children":[2,4,6,-1,8,10,12,14,16,18,20,22,24,26,28,30,32,34,36,38,40,42,44,46,48,50,52,54,56,58,60,62,-1,64,66,68,70,72,74,76,78,80,82,-1,84,86,88,-1,90,-1,-1,-1,-1,-1,-1,-1,-1,-1,-1,-1,-1,-1,-1,-1,-1,-1,-1,-1,-1,-1,-1,-1,-1,-1,-1,-1,-1,-1,-1,-1,-1,-1,-1,-1,-1,-1,-1,-1,-1,-1,-1],"split_conditions":[8E0,5.3839585E3,5.3839585E3,-6.7078384E1,6.4083335E3,3.0666667E3,6.2233335E3,7.015E3,6.555E3,3.7475E3,6.94E3,5.6933335E3,6.645E3,6.1583335E3,7.21E3,5E0,7.63E3,3.6841667E3,3.811875E3,4.4166665E3,6.1E3,5.61E3,9E0,6.32E3,6.4083335E3,5.9283335E3,1E0,1E0,5E0,5.445E3,5.485E3,7.095E3,1.4954419E1,3.4054167E3,3.6960417E3,4E0,1E0,4.29E3,1.5E1,3.7727083E3,2.1E1,6.48E3,6.03E3,1.8129721E0,6.03E3,5.53E3,5.7858335E3,6.882147E1,1E1,5.7322803E1,4.516607E1,2.4275053E1,8.6400444E1,-8.5175905E0,3.1583836E1,6.1535694E1,1.1789538E1,5.23418E0,4.084007E1,2.2440638E1,4.011543E0,3.7252438E1,7.317441E1,2.9238977E1,3.3411278E1,2.869546E0,2.2490746E1,7.299748E1,3.7766804E1,1.2799054E1,3.96824E1,2.8723621E1,2.0759497E1,2.3496943E1,3.0331623E1,1.5617927E1,4.352534E1,5.5728634E1,9.284842E0,5.2969276E1,1.2887985E1,3.092703E1,5.5194958E1,5.8847534E1,4.824667E1,2.3376646E1,4.5760586E1,-8.337289E0,2.5278936E1,1.3625806E1,5.1318226E1],"split_indices":[0,7,7,0,6,6,6,4,6,7,4,7,4,6,4,1,4,7,7,6,6,6,0,4,6,6,1,1,1,4,4,4,0,7,7,1,1,6,0,7,0,4,4,0,4,4,7,0,0,0,0,0,0,0,0,0,0,0,0,0,0,0,0,0,0,0,0,0,0,0,0,0,0,0,0,0,0,0,0,0,0,0,0,0,0,0,0,0,0,0,0],"split_type":[0,0,0,0,0,0,0,0,0,0,0,0,0,0,0,0,0,0,0,0,0,0,0,0,0,0,0,0,0,0,0,0,0,0,0,0,0,0,0,0,0,0,0,0,0,0,0,0,0,0,0,0,0,0,0,0,0,0,0,0,0,0,0,0,0,0,0,0,0,0,0,0,0,0,0,0,0,0,0,0,0,0,0,0,0,0,0,0,0,0,0],"sum_hessian":[1.7192E4,5.779E3,1.1413E4,5.49E3,2.89E2,1.0879E4,5.34E2,2.7E2,1.9E1,3.04E3,7.839E3,4.62E2,7.2E1,2.52E2,1.8E1,1E1,9E0,2.929E3,1.11E2,7.582E3,2.57E2,1.64E2,2.98E2,4.5E1,2.7E1,2.31E2,2.1E1,8E0,1E1,5E0,5E0,8E0,1E0,2.813E3,1.16E2,5.9E1,5.2E1,2.777E3,4.805E3,2.07E2,5E1,1.06E2,5.8E1,2E0,2.96E2,3.5E1,1E1,8E0,1.9E1,1.86E2,4.5E1,4E0,1.7E1,1E0,7E0,7E0,3E0,1E0,4E0,1E0,4E0,6E0,2E0,1.464E3,1.349E3,2.4E1,9.2E1,2.7E1,3.2E1,1.5E1,3.7E1,2.313E3,4.64E2,2.5E2,4.555E3,1.94E2,1.3E1,3.3E1,1.7E1,1E2,6E0,3.4E1,2.4E1,1.93E2,1.03E2,8E0,2.7E1,2E0,8E0,3E0,1.6E1],"tree_param":{"num_deleted":"0","num_feature":"8","num_nodes":"91","size_leaf_vector":"1"}},{"base_weights":[-3.7134368E0,-1.1643596E3,5.7934973E2,-1.2746123E3,1.0506141E3,5.5786523E2,1.0044625E3,-6.3504646E1,-1.3573385E3,1.179824E3,9.909426E2,7.5829254E2,5.5608734E2,1.0584E3,9.2148E2,-9.695705E2,-6.914654E1,1.4691628E3,9.710505E2,1.0814122E3,8.1652594E2,8.374782E1,6.982744E2,4.1957516E2,5.605798E2,1.0047049E3,1.2708328E3,7.6524805E2,9.778611E2,-1.3877734E2,-1.054171E3,1.8853439E3,5.425894E1,6.77828E2,1.1289021E3,9.6226575E2,1.2330873E3,5.3137537E2,8.846329E2,5.4883624E2,1.0392656E3,3.5887134E2,7.3643616E2,6.9268616E2,5.579479E2,3.2447836E2,1.008644E3,1.0775227E3,8.114538E1,9.594901E2,6.161316E2,7.944773E2,1.0421525E3,-1.3119822E1,2.7115204E0,-5.7409084E1,-2.900535E1,5.460554E1,1.046713E2,3.7520374E1,9.995422E0,6.008959E1,3.124481E1,2.9836424E1,5.018491E1,8.6244736E1,5.6459103E1,3.1127598E1,-2.0906813E1,4.9872253E1,3.5468025E1,3.025791E1,-4.823446E0,6.1404907E1,2.730633E1,4.2392223E1,1.638396E1,1.4392581E1,4.487295E1,4.0763927E0,3.979281E1,2.802514E1,2.2259327E1,1.4034058E0,2.293247E1,5.1517223E1,4.1308758E1,3.0619894E1,5.8316994E1,6.3380318E1,3.2451553E1,2.1597069E1,4.5709484E1,4.461802E1,1.4645892E1,5.658674E1,4.458332E1],"categories":[],"categories_nodes":[],"categories_segments":[],"categories_sizes":[],"default_left":[0,0,0,0,0,0,0,0,0,0,0,0,0,0,0,0,0,0,0,0,0,0,0,0,0,0,0,0,0,0,0,0,0,0,0,0,0,0,0,0,0,0,0,0,0,0,0,0,0,0,0,0,0,0,0,0,0,0,0,0,0,0,0,0,0,0,0,0,0,0,0,0,0,0,0,0,0,0,0,0,0,0,0,0,0,0,0,0,0,0,0,0,0,0,0,0,0],"id":16,"left_children":[1,3,5,7,9,11,13,-1,15,17,19,21,23,25,27,29,-1,31,33,35,37,-1,39,41,43,45,47,49,51,53,55,57,-1,59,61,63,65,67,69,71,73,75,77,79,81,83,85,87,-1,89,91,93,95,-1,-1,-1,-1,-1,-1,-1,-1,-1,-1,-1,-1,-1,-1,-1,-1,-1,-1,-1,-1,-1,-1,-1,-1,-1,-1,-1,-1,-1,-1,-1,-1,-1,-1,-1,-1,-1,-1,-1,-1,-1,-1,-1,-1],"loss_changes":[1.1628928E10,1.4045517E9,1.0390656E8,3.2256E5,9.35712E5,3.458816E6,1.481984E6,0E0,1.328672E6,3.46628E6,2.162432E6,3.946948E6,6.386944E6,2.44176E6,1.2248E6,1.259416E6,0E0,3.06788E6,1.54908E6,1.054288E6,8.8938E5,0E0,3.964796E6,6.429388E6,3.247104E6,3.82768E5,2.470968E6,1.262568E6,1.070224E6,8.580819E4,1.36138E5,2.4556E4,0E0,5.4373E5,3.87848E5,5.21808E5,6.58456E5,1.645482E6,3.7996E5,2.384448E6,1.750442E6,4.2063E6,3.714442E6,1.2545744E7,2.704384E6,1.0643559E5,1.9016E5,1.062112E6,0E0,1.664378E6,1.746199E6,1.996946E6,5.54656E5,0E0,0E0,0E0,0E0,0E0,0E0,0E0,0E0,0E0,0E0,0E0,0E0,0E0,0E0,0E0,0E0,0E0,0E0,0E0,0E0,0E0,0E0,0E0,0E0,0E0,0E0,0E0,0E0,0E0,0E0,0E0,0E0,0E0,0E0,0E0,0E0,0E0,0E0,0E0,0E0,0E0,0E0,0E0,0E0],"parents":[2147483647,0,0,1,1,2,2,3,3,4,4,5,5,6,6,8,8,9,9,10,10,11,11,12,12,13,13,14,14,15,15,17,17,18,18,19,19,20,20,22,22,23,23,24,24,25,25,26,26,27,27,28,28,29,29,30,30,31,31,33,33,34,34,35,35,36,36,37,37,38,38,39,39,40,40,41,41,42,42,43,43,44,44,45,45,46,46,47,47,49,49,50,50,51,51,52,52],"right_children":[2,4,6,8,10,12,14,-1,16,18,20,22,24,26,28,30,-1,32,34,36,38,-1,40,42,44,46,48,50,52,54,56,58,-1,60,62,64,66,68,70,72,74,76,78,80,82,84,86,88,-1,90,92,94,96,-1,-1,-1,-1,-1,-1,-1,-1,-1,-1,-1,-1,-1,-1,-1,-1,-1,-1,-1,-1,-1,-1,-1,-1,-1,-1,-1,-1,-1,-1,-1,-1,-1,-1,-1,-1,-1,-1,-1,-1,-1,-1,-1,-1],"split_conditions":[8E0,5.3839585E3,5.3839585E3,5.91E3,3E0,4E1,5.955E3,-6.3504646E1,3.211875E3,5.6933335E3,5E0,3.0639583E3,3.7E2,7E0,6.175E3,6.055E3,-6.914654E1,5.465E3,5.365E3,5.975E3,5.135E3,8.374782E1,3.5320833E3,7E0,9E0,9E0,5.57E3,1.4E1,1.3E1,6E0,3.195E3,4.675E3,5.425894E1,5.285E3,5.93125E3,5.5483335E3,6.055E3,5.115E3,5.975E3,3.5133333E3,1E1,3.1208333E3,9E0,3.2608333E3,3.811875E3,6E0,2.3E1,5.5483335E3,8.114538E1,5.6933335E3,5.8177085E3,7E0,2E1,-1.3119822E1,2.7115204E0,-5.7409084E1,-2.900535E1,5.460554E1,1.046713E2,3.7520374E1,9.995422E0,6.008959E1,3.124481E1,2.9836424E1,5.018491E1,8.6244736E1,5.6459103E1,3.1127598E1,-2.0906813E1,4.9872253E1,3.5468025E1,3.025791E1,-4.823446E0,6.1404907E1,2.730633E1,4.2392223E1,1.638396E1,1.4392581E1,4.487295E1,4.0763927E0,3.979281E1,2.802514E1,2.2259327E1,1.4034058E0,2.293247E1,5.1517223E1,4.1308758E1,3.0619894E1,5.8316994E1,6.3380318E1,3.2451553E1,2.1597069E1,4.5709484E1,4.461802E1,1.4645892E1,5.658674E1,4.458332E1],"split_indices":[0,7,7,4,0,4,4,0,7,7,1,7,4,2,4,4,0,4,4,4,4,0,7,2,0,0,4,0,0,1,7,4,0,4,7,7,4,4,4,7,4,7,0,7,7,1,0,7,0,7,7,2,0,0,0,0,0,0,0,0,0,0,0,0,0,0,0,0,0,0,0,0,0,0,0,0,0,0,0,0,0,0,0,0,0,0,0,0,0,0,0,0,0,0,0,0,0],"split_type":[0,0,0,0,0,0,0,0,0,0,0,0,0,0,0,0,0,0,0,0,0,0,0,0,0,0,0,0,0,0,0,0,0,0,0,0,0,0,0,0,0,0,0,0,0,0,0,0,0,0,0,0,0,0,0,0,0,0,0,0,0,0,0,0,0,0,0,0,0,0,0,0,0,0,0,0,0,0,0,0,0,0,0,0,0,0,0,0,0,0,0,0,0,0,0,0,0],"sum_hessian":[1.7182E4,5.745E3,1.1437E4,5.473E3,2.72E2,1.0889E4,5.48E2,5.205E3,2.68E2,8E1,1.92E2,9.2E1,1.0797E4,3.25E2,2.23E2,1.9E1,2.49E2,3.1E1,4.9E1,1.23E2,6.9E1,4E0,8.8E1,3.47E2,1.045E4,2.64E2,6.1E1,6.3E1,1.6E2,2E0,1.7E1,1.3E1,1.8E1,1.9E1,3E1,7.3E1,5E1,1.5E1,5.4E1,6.3E1,2.5E1,2.93E2,5.4E1,1.99E2,1.0251E4,2E0,2.62E2,4.2E1,1.9E1,2.5E1,3.8E1,4.5E1,1.15E2,1E0,1E0,1.3E1,4E0,4E0,9E0,1.6E1,3E0,2.5E1,5E0,9E0,6.4E1,6E0,4.4E1,1.4E1,1E0,3E1,2.4E1,5.8E1,5E0,1.7E1,8E0,1.6E1,2.77E2,1.5E1,3.9E1,2.9E1,1.7E2,1.002E4,2.31E2,1E0,1E0,2.3E2,3.2E1,8E0,3.4E1,1.1E1,1.4E1,2.5E1,1.3E1,3.7E1,8E0,6.8E1,4.7E1],"tree_param":{"num_deleted":"0","num_feature":"8","num_nodes":"97","size_leaf_vector":"1"}},{"base_weights":[2.570189E0,-1.2029374E3,5.6498236E2,-6.038507E1,7.3823914E2,9.97863E2,5.5495306E2,2.8070416E2,1.3015018E3,1.1778132E3,9.2022235E2,5.419799E2,6.931687E2,3.999494E2,-1.6831446E1,1.0344324E1,7.3952385E1,1.2334536E3,6.265511E2,6.771931E2,9.6729144E2,4.8059836E2,5.535782E2,9.711286E2,6.561414E2,5.8141565E2,-9.629956E1,1.2583682E3,2.7418115E2,6.563761E1,6.556418E1,7.62484E2,1.5208797E2,1.1311147E3,8.8169836E2,4.8495526E2,-2.9201413E2,7.001864E2,5.5034937E2,1.0440582E3,5.282189E2,8.9522626E2,6.2273706E2,-6.1759033E0,3.73553E1,-1.2923011E1,5.7005434E0,1.1898267E1,6.3520283E1,2.0377394E1,1.8619385E-1,-1.0936523E1,1.3125214E1,4.3076714E1,2.8715214E1,2.3902996E1,-6.5206485E0,5.9063946E1,1.2945355E1,3.3073307E1,4.9432865E1,2.2953466E1,3.0425266E1,1.6473204E1,-3.806218E1,2.8863132E0,3.997944E1,2.8883738E1,2.6621946E1,5.3742596E1,2.015058E1,-1.735022E1,3.0005732E1,2.0109354E1,5.5936035E1,4.7769684E1,2.9651428E1],"categories":[],"categories_nodes":[],"categories_segments":[],"categories_sizes":[],"default_left":[0,0,0,0,0,0,0,0,0,0,0,0,0,0,0,0,0,0,0,0,0,0,0,0,0,0,0,0,0,0,0,0,0,0,0,0,0,0,0,0,0,0,0,0,0,0,0,0,0,0,0,0,0,0,0,0,0,0,0,0,0,0,0,0,0,0,0,0,0,0,0,0,0,0,0,0,0],"id":17,"left_children":[1,3,5,-1,7,9,11,13,15,17,19,21,23,25,-1,-1,-1,27,29,31,33,35,37,39,41,43,45,47,49,51,-1,53,55,57,59,61,63,65,67,69,71,73,75,-1,-1,-1,-1,-1,-1,-1,-1,-1,-1,-1,-1,-1,-1,-1,-1,-1,-1,-1,-1,-1,-1,-1,-1,-1,-1,-1,-1,-1,-1,-1,-1,-1,-1],"loss_changes":[1.1647229E10,5.143091E7,5.0302464E7,0E0,3.242635E6,2.604624E6,2.0157184E7,7.971609E5,8.60072E5,1.55828E6,1.50696E6,7.18976E6,9.438752E6,7.764096E5,0E0,0E0,0E0,1.280168E6,3.3706118E6,1.406784E6,1.190144E6,5.76992E6,3.781376E6,3.098552E6,6.366816E6,7.930855E5,1.317795E5,5.08376E5,1.0669233E5,3.9331322E5,0E0,4.5754E4,6.148695E5,1.881832E6,1.866512E6,5.039264E6,3.1669615E6,1.1832176E7,3.909632E6,1.461872E6,1.340889E6,1.1009976E7,6.98384E6,0E0,0E0,0E0,0E0,0E0,0E0,0E0,0E0,0E0,0E0,0E0,0E0,0E0,0E0,0E0,0E0,0E0,0E0,0E0,0E0,0E0,0E0,0E0,0E0,0E0,0E0,0E0,0E0,0E0,0E0,0E0,0E0,0E0,0E0],"parents":[2147483647,0,0,1,1,2,2,4,4,5,5,6,6,7,7,8,8,9,9,10,10,11,11,12,12,13,13,17,17,18,18,19,19,20,20,21,21,22,22,23,23,24,24,25,25,26,26,27,27,28,28,29,29,31,31,32,32,33,33,34,34,35,35,36,36,37,37,38,38,39,39,40,40,41,41,42,42],"right_children":[2,4,6,-1,8,10,12,14,16,18,20,22,24,26,-1,-1,-1,28,30,32,34,36,38,40,42,44,46,48,50,52,-1,54,56,58,60,62,64,66,68,70,72,74,76,-1,-1,-1,-1,-1,-1,-1,-1,-1,-1,-1,-1,-1,-1,-1,-1,-1,-1,-1,-1,-1,-1,-1,-1,-1,-1,-1,-1,-1,-1,-1,-1,-1,-1],"split_conditions":[2.26E3,8E0,8E0,-6.038507E1,4.525E3,3E0,5.68E3,4.325E3,1.3E1,7.15E3,5.2933335E3,3.64E3,1.4E1,2E1,-1.6831446E1,1.0344324E1,7.3952385E1,6.4083335E3,7.53E3,5.2016665E3,5.6966665E3,7.63E3,3.705E3,6.415E3,4.945E3,4.8666666E2,1E0,4.22E3,5.485E3,5.545E3,6.556418E1,4E0,5.735E3,6.48E3,5.75E3,5.03E3,4.215E3,2.37E3,1.4E1,6.94E3,5.745E3,4.365E3,3.365E3,-6.1759033E0,3.73553E1,-1.2923011E1,5.7005434E0,1.1898267E1,6.3520283E1,2.0377394E1,1.8619385E-1,-1.0936523E1,1.3125214E1,4.3076714E1,2.8715214E1,2.3902996E1,-6.5206485E0,5.9063946E1,1.2945355E1,3.3073307E1,4.9432865E1,2.2953466E1,3.0425266E1,1.6473204E1,-3.806218E1,2.8863132E0,3.997944E1,2.8883738E1,2.6621946E1,5.3742596E1,2.015058E1,-1.735022E1,3.0005732E1,2.0109354E1,5.5936035E1,4.7769684E1,2.9651428E1],"split_indices":[5,0,0,0,4,0,6,4,0,5,6,5,0,0,0,0,0,6,5,6,6,4,5,5,4,6,1,5,4,4,0,1,5,4,4,6,6,4,0,4,6,4,5,0,0,0,0,0,0,0,0,0,0,0,0,0,0,0,0,0,0,0,0,0,0,0,0,0,0,0,0,0,0,0,0,0,0],"split_type":[0,0,0,0,0,0,0,0,0,0,0,0,0,0,0,0,0,0,0,0,0,0,0,0,0,0,0,0,0,0,0,0,0,0,0,0,0,0,0,0,0,0,0,0,0,0,0,0,0,0,0,0,0,0,0,0,0,0,0,0,0,0,0,0,0,0,0,0,0,0,0,0,0,0,0,0,0],"sum_hessian":[1.7177E4,5.464E3,1.1713E4,5.451E3,1.3E1,2.63E2,1.145E4,8E0,5E0,7.5E1,1.88E2,1.0472E4,9.78E2,7E0,1E0,1E0,4E0,6.7E1,8E0,3.3E1,1.55E2,1.671E3,8.801E3,1.12E2,8.66E2,5E0,2E0,6.5E1,2E0,5E0,3E0,2.8E1,5E0,4.9E1,1.06E2,1.662E3,9E0,1.85E2,8.616E3,9.5E1,1.7E1,1.03E2,7.63E2,1E0,4E0,1E0,1E0,1E0,6.4E1,1E0,1E0,2E0,3E0,1.6E1,1.2E1,2E0,3E0,4.6E1,3E0,3.7E1,6.9E1,1.378E3,2.84E2,4E0,5E0,2.5E1,1.6E2,3.399E3,5.217E3,9E1,5E0,1E0,1.6E1,3.3E1,7E1,6E1,7.03E2],"tree_param":{"num_deleted":"0","num_feature":"8","num_nodes":"77","size_leaf_vector":"1"}},{"base_weights":[-2.351079E0,-7.3724115E2,3.446563E2,-3.3272852E2,-1.1348646E3,3.0068134E2,9.4779755E2,-3.2180746E2,-5.790674E2,-1.1493971E3,-3.865495E2,5.273345E2,2.5147926E2,1.3367219E3,9.401882E2,-3.3239246E2,-1.1430919E2,-8.4813153E2,-3.7666727E2,-7.680943E2,-1.1554475E3,7.9624963E2,-4.949308E2,2.131724E2,5.336016E2,3.2859476E2,2.2407127E2,7.695956E1,2.4818426E1,2.5442493E2,9.424819E2,-3.2371243E2,-6.450939E2,-8.783072E2,2.437792E1,-9.8108344E2,-6.0629706E2,-2.596588E2,-7.7278656E2,-9.5835345E2,1.20565865E2,-1.158531E3,-7.2618146E2,-1.7199858E1,8.3554E1,-5.7252895E1,-7.754567E2,5.0287665E2,-7.062281E2,6.488958E2,5.0577142E2,3.0193378E2,4.4867358E2,1.3343294E2,2.3466135E2,1.4876368E1,3.1279418E0,9.175374E2,1.0343424E3,-1.5185877E1,-2.1000174E1,-3.825215E1,-1.2364986E1,-4.9040284E0,-4.5710484E1,3.4464307E0,-5.922926E1,-4.5758243E0,-5.0430122E1,-1.5336623E1,-4.691751E1,-1.5799819E1,2.6177982E1,1.7340673E1,-4.3876522E1,-5.1765156E1,4.7219543E1,-1.6062794E1,3.765785E1,-5.358279E1,-5.8198536E1,2.9443913E1,-4.4356564E1,1.3875526E1,-2.2662186E1,-1.5532473E1,-4.372923E1,1.8288113E1,8.303452E1,-4.7417046E1,-5.298688E0,2.6630156E1,4.1183483E1,-8.7094555E0,2.585089E1,1.3445004E1,1.7858313E1,-9.2285484E-1,2.3884886E1,2.849956E0,1.6841232E1,1.6260412E1,1.08709135E1,4.509263E1,5.35196E1,5.610152E1,4.4263943E1],"categories":[],"categories_nodes":[],"categories_segments":[],"categories_sizes":[],"default_left":[0,0,0,0,0,0,0,0,0,0,0,0,0,0,0,0,0,0,0,0,0,0,0,0,0,0,0,0,0,0,0,0,0,0,0,0,0,0,0,0,0,0,0,0,0,0,0,0,0,0,0,0,0,0,0,0,0,0,0,0,0,0,0,0,0,0,0,0,0,0,0,0,0,0,0,0,0,0,0,0,0,0,0,0,0,0,0,0,0,0,0,0,0,0,0,0,0,0,0,0,0,0,0,0,0,0,0],"id":18,"left_children":[1,3,5,7,9,11,13,15,17,19,21,23,25,27,29,31,33,35,37,39,41,43,45,47,49,51,53,-1,-1,55,57,59,61,63,65,67,69,71,73,75,77,79,81,-1,-1,83,85,87,89,91,93,95,97,99,101,-1,-1,103,105,-1,-1,-1,-1,-1,-1,-1,-1,-1,-1,-1,-1,-1,-1,-1,-1,-1,-1,-1,-1,-1,-1,-1,-1,-1,-1,-1,-1,-1,-1,-1,-1,-1,-1,-1,-1,-1,-1,-1,-1,-1,-1,-1,-1,-1,-1,-1,-1],"loss_changes":[4.4277775E9,8.95361E8,3.1252864E8,7.244224E6,3.0092288E7,1.2247027E8,1.113728E6,5.775776E6,5.997732E6,5.466112E6,7.4447205E6,3.745344E6,1.9022592E7,1.447886E6,1.001344E6,6.625664E6,1.3795778E7,9.8064E5,2.951092E6,7.893024E6,2.744576E6,5.5624585E6,6.217384E6,1.1009315E7,5.835584E6,7.442304E6,6.370016E6,0E0,0E0,1.4466609E4,8.51968E5,4.593344E6,3.007714E6,4.70576E5,6.0601275E6,6.42094E5,1.7016055E6,2.5481712E6,2.063407E6,6.541516E6,2.7573885E6,2.2784E4,5.178904E6,0E0,0E0,2.9096082E6,1.156646E6,4.3139225E6,1.352793E6,7.08152E6,1.1958336E7,3.443536E6,5.811664E6,1.0863004E7,9.250336E6,0E0,0E0,5.37888E5,1.09808E6,0E0,0E0,0E0,0E0,0E0,0E0,0E0,0E0,0E0,0E0,0E0,0E0,0E0,0E0,0E0,0E0,0E0,0E0,0E0,0E0,0E0,0E0,0E0,0E0,0E0,0E0,0E0,0E0,0E0,0E0,0E0,0E0,0E0,0E0,0E0,0E0,0E0,0E0,0E0,0E0,0E0,0E0,0E0,0E0,0E0,0E0,0E0,0E0],"parents":[2147483647,0,0,1,1,2,2,3,3,4,4,5,5,6,6,7,7,8,8,9,9,10,10,11,11,12,12,13,13,14,14,15,15,16,16,17,17,18,18,19,19,20,20,21,21,22,22,23,23,24,24,25,25,26,26,29,29,30,30,31,31,32,32,33,33,34,34,35,35,36,36,37,37,38,38,39,39,40,40,41,41,42,42,45,45,46,46,47,47,48,48,49,49,50,50,51,51,52,52,53,53,54,54,57,57,58,58],"right_children":[2,4,6,8,10,12,14,16,18,20,22,24,26,28,30,32,34,36,38,40,42,44,46,48,50,52,54,-1,-1,56,58,60,62,64,66,68,70,72,74,76,78,80,82,-1,-1,84,86,88,90,92,94,96,98,100,102,-1,-1,104,106,-1,-1,-1,-1,-1,-1,-1,-1,-1,-1,-1,-1,-1,-1,-1,-1,-1,-1,-1,-1,-1,-1,-1,-1,-1,-1,-1,-1,-1,-1,-1,-1,-1,-1,-1,-1,-1,-1,-1,-1,-1,-1,-1,-1,-1,-1,-1,-1],"split_conditions":[2.37E3,1.2466666E3,5.3839585E3,1.1E3,1.795E3,3.265E3,4.155E3,1.01E3,9.7E2,1.3133334E3,1.3783334E3,2.72E3,4.2566665E3,5.2016665E3,4.215E3,9.683333E2,4.05E2,3.4366667E3,1.62E3,1.375E3,3.9014583E3,1.3133334E3,3.3177083E3,3.4525E3,3.625E3,5.41E3,4.4166665E3,7.695956E1,2.4818426E1,7E0,7E0,1.01E3,6E0,2.9941667E3,3.739375E3,1E1,4E0,3.755E3,1E0,3.674375E3,5E0,1.5783334E3,1.3783334E3,-1.7199858E1,8.3554E1,3.6766667E3,4E0,3.4195833E3,3.5052083E3,3.3910417E3,3.67E3,3.4054167E3,3.1397917E3,3.48625E3,3.995E3,1.4876368E1,3.1279418E0,6.865E3,6.055E3,-1.5185877E1,-2.1000174E1,-3.825215E1,-1.2364986E1,-4.9040284E0,-4.5710484E1,3.4464307E0,-5.922926E1,-4.5758243E0,-5.0430122E1,-1.5336623E1,-4.691751E1,-1.5799819E1,2.6177982E1,1.7340673E1,-4.3876522E1,-5.1765156E1,4.7219543E1,-1.6062794E1,3.765785E1,-5.358279E1,-5.8198536E1,2.9443913E1,-4.4356564E1,1.3875526E1,-2.2662186E1,-1.5532473E1,-4.372923E1,1.8288113E1,8.303452E1,-4.7417046E1,-5.298688E0,2.6630156E1,4.1183483E1,-8.7094555E0,2.585089E1,1.3445004E1,1.7858313E1,-9.2285484E-1,2.3884886E1,2.849956E0,1.6841232E1,1.6260412E1,1.08709135E1,4.509263E1,5.35196E1,5.610152E1,4.4263943E1],"split_indices":[4,6,7,6,4,6,4,6,4,6,6,4,6,6,4,6,4,7,4,4,7,6,7,7,4,4,6,0,0,2,2,4,1,7,7,4,1,7,1,7,1,6,6,0,0,6,1,7,7,7,4,7,7,7,4,0,0,4,4,0,0,0,0,0,0,0,0,0,0,0,0,0,0,0,0,0,0,0,0,0,0,0,0,0,0,0,0,0,0,0,0,0,0,0,0,0,0,0,0,0,0,0,0,0,0,0,0],"split_type":[0,0,0,0,0,0,0,0,0,0,0,0,0,0,0,0,0,0,0,0,0,0,0,0,0,0,0,0,0,0,0,0,0,0,0,0,0,0,0,0,0,0,0,0,0,0,0,0,0,0,0,0,0,0,0,0,0,0,0,0,0,0,0,0,0,0,0,0,0,0,0,0,0,0,0,0,0,0,0,0,0,0,0,0,0,0,0,0,0,0,0,0,0,0,0,0,0,0,0,0,0,0,0,0,0,0,0],"sum_hessian":[1.7361E4,5.568E3,1.1793E4,2.761E3,2.807E3,1.0993E4,8E2,2.646E3,1.15E2,2.753E3,5.4E1,1.959E3,9.034E3,1.2E1,7.88E2,2.517E3,1.29E2,4.8E1,6.7E1,4.5E1,2.708E3,4E0,5E1,3.9E1,1.92E3,2.366E3,6.668E3,9E0,3E0,3E0,7.85E2,2.451E3,6.6E1,1.9E1,1.1E2,2.9E1,1.9E1,5.3E1,1.4E1,3.7E1,8E0,2.687E3,2.1E1,2E0,2E0,2E1,3E1,3E1,9E0,3.69E2,1.551E3,1.939E3,4.27E2,6.99E2,5.969E3,2E0,1E0,6.26E2,1.59E2,2.033E3,4.18E2,5E1,1.6E1,1E0,1.8E1,1.07E2,3E0,1E0,2.8E1,1.1E1,8E0,5E1,3E0,1E0,1.3E1,3.6E1,1E0,5E0,3E0,1.7E2,2.517E3,2E0,1.9E1,1.1E1,9E0,6E0,2.4E1,2.8E1,2E0,6E0,3E0,2.24E2,1.45E2,2.5E1,1.526E3,1.217E3,7.22E2,2.5E1,4.02E2,5.09E2,1.9E2,9.52E2,5.017E3,5.74E2,5.2E1,9.6E1,6.3E1],"tree_param":{"num_deleted":"0","num_feature":"8","num_nodes":"107","size_leaf_vector":"1"}},{"base_weights":[-2.659551E0,-1.1183981E3,5.226016E2,-1.1220105E3,-8.1284454E2,4.9619516E2,8.882054E2,-1.1117264E3,-1.2093322E3,-9.322086E2,8.775847E2,5.3291547E2,4.818763E2,8.7636475E2,1.1674758E3,-5.8689877E1,-1.1053124E3,-1.1556656E3,-6.541615E1,7.398423E1,-1.01873315E3,1.2582597E1,6.0549465E1,5.260299E2,8.365688E2,4.1749387E2,4.9409686E2,8.8672577E2,6.783741E2,5.2296716E2,6.2483925E1,-5.5327667E1,-9.174667E2,-2.666305E1,-1.159271E3,5.305695E2,-2.797288E1,-6.991197E2,-1.0854618E3,5.333668E2,2.5613242E2,4.5468658E2,1.1421738E3,4.2402795E2,-6.5890955E2,6.70256E2,4.877783E2,9.1743066E2,8.13051E2,7.349387E2,2.1649658E2,3.3817513E1,-2.2641237E0,-5.6129658E1,-3.3068493E1,-5.848524E1,-4.369047E1,4.0050575E1,8.670919E0,-5.4492146E1,2.2623411E1,-2.6754719E1,-5.621073E1,2.6288496E1,3.8974392E1,3.9171402E1,3.5202756E0,4.105469E1,-9.694133E0,5.9788918E1,-1.8349646E1,1.6748787E1,2.4995935E1,-9.4385576E-1,-4.3455376E1,4.3579132E1,2.6276371E1,2.511776E1,2.0817467E1,3.819813E1,4.7535152E1,2.6674702E1,4.2388374E1,2.4110794E1,4.4266544E1,1.920752E-1,3.1994299E1],"categories":[],"categories_nodes":[],"categories_segments":[],"categories_sizes":[],"default_left":[0,0,0,0,0,0,0,0,0,0,0,0,0,0,0,0,0,0,0,0,0,0,0,0,0,0,0,0,0,0,0,0,0,0,0,0,0,0,0,0,0,0,0,0,0,0,0,0,0,0,0,0,0,0,0,0,0,0,0,0,0,0,0,0,0,0,0,0,0,0,0,0,0,0,0,0,0,0,0,0,0,0,0,0,0,0,0],"id":19,"left_children":[1,3,5,7,9,11,13,15,17,19,21,23,25,27,29,-1,31,33,-1,35,37,-1,-1,39,41,43,45,47,49,51,-1,-1,53,-1,55,57,-1,59,61,63,65,67,69,71,73,75,77,79,81,83,85,-1,-1,-1,-1,-1,-1,-1,-1,-1,-1,-1,-1,-1,-1,-1,-1,-1,-1,-1,-1,-1,-1,-1,-1,-1,-1,-1,-1,-1,-1,-1,-1,-1,-1,-1,-1],"loss_changes":[1.0086575E10,5.169152E6,1.1253376E8,3.542528E6,1.45389E7,5.482752E6,1.579264E6,6.45632E5,1.473664E6,5.647236E6,7.3869625E5,5.943232E6,5.980928E6,9.55456E5,8.82888E5,0E0,1.9968E4,2.18816E5,0E0,2.0321522E6,4.99448E5,0E0,0E0,5.780224E6,7.183208E6,9.1484E6,7.023872E6,8.78336E5,9.38176E5,4.6642612E5,0E0,0E0,1.09618E6,0E0,7.9904E4,2.474445E5,0E0,6.342497E6,4.00868E5,5.027456E6,7.8774135E6,7.52605E6,3.35118E6,8.307376E6,1.0598618E6,6.127088E6,6.43264E6,1.821728E6,1.68288E6,9.79358E5,5.377573E5,0E0,0E0,0E0,0E0,0E0,0E0,0E0,0E0,0E0,0E0,0E0,0E0,0E0,0E0,0E0,0E0,0E0,0E0,0E0,0E0,0E0,0E0,0E0,0E0,0E0,0E0,0E0,0E0,0E0,0E0,0E0,0E0,0E0,0E0,0E0,0E0],"parents":[2147483647,0,0,1,1,2,2,3,3,4,4,5,5,6,6,7,7,8,8,9,9,10,10,11,11,12,12,13,13,14,14,16,16,17,17,19,19,20,20,23,23,24,24,25,25,26,26,27,27,28,28,29,29,32,32,34,34,35,35,37,37,38,38,39,39,40,40,41,41,42,42,43,43,44,44,45,45,46,46,47,47,48,48,49,49,50,50],"right_children":[2,4,6,8,10,12,14,16,18,20,22,24,26,28,30,-1,32,34,-1,36,38,-1,-1,40,42,44,46,48,50,52,-1,-1,54,-1,56,58,-1,60,62,64,66,68,70,72,74,76,78,80,82,84,86,-1,-1,-1,-1,-1,-1,-1,-1,-1,-1,-1,-1,-1,-1,-1,-1,-1,-1,-1,-1,-1,-1,-1,-1,-1,-1,-1,-1,-1,-1,-1,-1,-1,-1,-1,-1],"split_conditions":[2.26E3,1.725E3,5.3839585E3,5.075E3,5.015E3,3.69E3,7.21E3,5.233333E2,3.5485417E3,3.2316667E3,5.2016665E3,5.185E3,3.615E3,6.4083335E3,5.6202085E3,-5.8689877E1,3.9014583E3,3.83E3,-6.541615E1,1E0,7E2,1.2582597E1,6.0549465E1,4.95E3,3.455E3,7.63E3,3.725E3,6.095E3,6.38E3,5E0,6.2483925E1,-5.5327667E1,5E0,-2.666305E1,3.536875E3,4.43E3,-2.797288E1,5.8E2,1.2E2,3.7475E3,3.165E3,3.52375E3,6.885E3,4.5233335E3,4.18E3,3.36E3,5.3766665E3,1E0,5.6202085E3,5.47E3,7.095E3,3.3817513E1,-2.2641237E0,-5.6129658E1,-3.3068493E1,-5.848524E1,-4.369047E1,4.0050575E1,8.670919E0,-5.4492146E1,2.2623411E1,-2.6754719E1,-5.621073E1,2.6288496E1,3.8974392E1,3.9171402E1,3.5202756E0,4.105469E1,-9.694133E0,5.9788918E1,-1.8349646E1,1.6748787E1,2.4995935E1,-9.4385576E-1,-4.3455376E1,4.3579132E1,2.6276371E1,2.511776E1,2.0817467E1,3.819813E1,4.7535152E1,2.6674702E1,4.2388374E1,2.4110794E1,4.4266544E1,1.920752E-1,3.1994299E1],"split_indices":[5,5,7,4,6,4,4,6,7,7,6,6,5,6,7,0,7,6,0,1,6,0,0,6,4,4,5,5,5,1,0,0,1,0,7,6,0,4,4,7,4,7,5,6,6,7,6,1,7,5,4,0,0,0,0,0,0,0,0,0,0,0,0,0,0,0,0,0,0,0,0,0,0,0,0,0,0,0,0,0,0,0,0,0,0,0,0],"split_type":[0,0,0,0,0,0,0,0,0,0,0,0,0,0,0,0,0,0,0,0,0,0,0,0,0,0,0,0,0,0,0,0,0,0,0,0,0,0,0,0,0,0,0,0,0,0,0,0,0,0,0,0,0,0,0,0,0,0,0,0,0,0,0,0,0,0,0,0,0,0,0,0,0,0,0,0,0,0,0,0,0,0,0,0,0,0,0],"sum_hessian":[1.7209E4,5.508E3,1.1701E4,5.441E3,6.7E1,1.0915E4,7.86E2,4.88E3,5.61E2,6.3E1,4E0,3.052E3,7.863E3,7.58E2,2.8E1,4.4E2,4.44E3,3.72E2,1.89E2,5E0,5.8E1,2E0,2E0,2.987E3,6.5E1,1.26E3,6.603E3,7.17E2,4.1E1,4E0,2.4E1,4.406E3,3.4E1,3E0,3.69E2,3E0,2E0,1.2E1,4.6E1,2.907E3,8E1,3E1,3.5E1,1.253E3,7E0,2.25E2,6.378E3,4.98E2,2.19E2,3.6E1,5E0,3E0,1E0,1.7E1,1.7E1,3.53E2,1.6E1,1E0,2E0,9E0,3E0,4E0,4.2E1,2.823E3,8.4E1,2E1,6E1,1.9E1,1.1E1,3.4E1,1E0,5.79E2,6.74E2,2E0,5E0,9.2E1,1.33E2,5.292E3,1.086E3,9.3E1,4.05E2,2.6E1,1.93E2,1.5E1,2.1E1,4E0,1E0],"tree_param":{"num_deleted":"0","num_feature":"8","num_nodes":"87","size_leaf_vector":"1"}},{"base_weights":[1.3225219E0,-1.060018E3,4.993395E2,-1.0632206E3,6.297982E2,9.324724E2,4.8909058E2,-1.0524607E3,-5.7880886E1,3.795457E2,5.8531155E1,1.0599194E3,8.7959717E2,4.7766745E2,5.773913E2,-1.0820228E3,-1.044071E3,5.033747E2,-1.5277161E1,1.1847592E3,8.1251294E2,1.012783E3,7.886738E2,4.9159637E2,4.3204175E2,8.406661E2,5.464935E2,-5.50359E1,-1.0024253E3,-1.0378754E3,-1.1096686E3,-6.062085E0,6.0992584E2,8.045801E1,1.2320513E3,5.6701215E2,5.988566E1,8.1618274E2,1.2316368E3,8.4816064E2,4.458572E2,5.152629E2,4.7220187E2,3.6096106E2,4.9220392E2,8.939678E2,2.1982658E2,6.827676E2,5.0810913E2,-5.2624348E1,-4.4256054E1,-5.193683E1,-3.829508E1,-5.6191456E1,-4.0521957E1,4.037819E1,1.2990323E1,7.386768E0,-1.352417E0,6.7635E1,4.5028694E1,5.3459198E1,1.5564742E1,4.248866E1,4.252653E0,8.258502E1,5.194298E1,3.226129E1,4.679327E1,-3.569336E0,3.9831768E1,2.4782043E1,2.9388199E1,8.864375E1,2.3543549E1,1.8286066E1,-5.126292E1,2.0261477E1,2.9526722E1,4.706149E1,2.916223E1,1.6652143E1,-1.154183E1,2.5044966E1,4.9094254E1,2.3359167E1,3.6303516E1],"categories":[],"categories_nodes":[],"categories_segments":[],"categories_sizes":[],"default_left":[0,0,0,0,0,0,0,0,0,0,0,0,0,0,0,0,0,0,0,0,0,0,0,0,0,0,0,0,0,0,0,0,0,0,0,0,0,0,0,0,0,0,0,0,0,0,0,0,0,0,0,0,0,0,0,0,0,0,0,0,0,0,0,0,0,0,0,0,0,0,0,0,0,0,0,0,0,0,0,0,0,0,0,0,0,0,0],"id":20,"left_children":[1,3,5,7,9,11,13,15,-1,17,-1,19,21,23,25,27,29,31,-1,33,35,37,39,41,43,45,47,-1,49,51,53,-1,55,57,59,61,-1,63,65,67,69,71,73,75,77,79,81,83,85,-1,-1,-1,-1,-1,-1,-1,-1,-1,-1,-1,-1,-1,-1,-1,-1,-1,-1,-1,-1,-1,-1,-1,-1,-1,-1,-1,-1,-1,-1,-1,-1,-1,-1,-1,-1,-1,-1],"loss_changes":[9.074416E9,3.0342656E7,5.141555E7,4.340736E6,1.044466E6,8.80432E5,1.1240192E7,9.1648E4,0E0,9.173076E5,0E0,1.322944E6,1.574736E6,6.21568E6,1.0139936E7,4.75392E5,4.19072E5,6.063771E5,0E0,2.355432E6,1.968756E6,2.264792E6,2.089408E6,3.310336E6,9.974464E6,4.270872E6,5.767904E6,0E0,3.19248E5,3.456E4,4.40864E5,0E0,2.7456775E5,2.5694223E4,5.81448E5,2.107035E6,0E0,9.83758E5,1.037392E6,1.211584E6,3.6856272E6,4.653696E6,6.551616E6,7.5808E6,1.0733184E7,1.272032E6,6.8914744E5,1.3325776E7,7.831728E6,0E0,0E0,0E0,0E0,0E0,0E0,0E0,0E0,0E0,0E0,0E0,0E0,0E0,0E0,0E0,0E0,0E0,0E0,0E0,0E0,0E0,0E0,0E0,0E0,0E0,0E0,0E0,0E0,0E0,0E0,0E0,0E0,0E0,0E0,0E0,0E0,0E0,0E0],"parents":[2147483647,0,0,1,1,2,2,3,3,4,4,5,5,6,6,7,7,9,9,11,11,12,12,13,13,14,14,15,15,16,16,17,17,19,19,20,20,21,21,22,22,23,23,24,24,25,25,26,26,28,28,29,29,30,30,32,32,33,33,34,34,35,35,37,37,38,38,39,39,40,40,41,41,42,42,43,43,44,44,45,45,46,46,47,47,48,48],"right_children":[2,4,6,8,10,12,14,16,-1,18,-1,20,22,24,26,28,30,32,-1,34,36,38,40,42,44,46,48,-1,50,52,54,-1,56,58,60,62,-1,64,66,68,70,72,74,76,78,80,82,84,86,-1,-1,-1,-1,-1,-1,-1,-1,-1,-1,-1,-1,-1,-1,-1,-1,-1,-1,-1,-1,-1,-1,-1,-1,-1,-1,-1,-1,-1,-1,-1,-1,-1,-1,-1,-1,-1,-1],"split_conditions":[2.26E3,8E0,8E0,5.115E3,5.1533335E3,3E0,5.5466665E3,8.466667E2,-5.7880886E1,6E0,5.8531155E1,6.095E3,4E0,2E1,1.4E1,7E0,4.74E3,4.8666666E2,-1.5277161E1,4.9616665E3,6.08E3,5.67E3,6.48E3,4.175E3,4.65E3,6.865E3,5.175E3,-5.50359E1,6.283333E2,4.7183335E3,5.04E3,-6.062085E0,4.43E3,4.64E3,5.81E3,4.945E3,5.988566E1,5.65E3,5.5683335E3,5.45E3,6.2233335E3,5.86E3,1.485E3,7.63E3,4.655E3,6.3E3,6E0,2.1E1,6.94E3,-5.2624348E1,-4.4256054E1,-5.193683E1,-3.829508E1,-5.6191456E1,-4.0521957E1,4.037819E1,1.2990323E1,7.386768E0,-1.352417E0,6.7635E1,4.5028694E1,5.3459198E1,1.5564742E1,4.248866E1,4.252653E0,8.258502E1,5.194298E1,3.226129E1,4.679327E1,-3.569336E0,3.9831768E1,2.4782043E1,2.9388199E1,8.864375E1,2.3543549E1,1.8286066E1,-5.126292E1,2.0261477E1,2.9526722E1,4.706149E1,2.916223E1,1.6652143E1,-1.154183E1,2.5044966E1,4.9094254E1,2.3359167E1,3.6303516E1],"split_indices":[5,0,0,4,6,0,6,6,0,1,0,5,1,0,0,2,6,6,0,6,4,4,4,4,5,4,4,0,6,6,4,0,6,4,4,4,0,4,6,5,6,5,6,4,4,6,1,0,4,0,0,0,0,0,0,0,0,0,0,0,0,0,0,0,0,0,0,0,0,0,0,0,0,0,0,0,0,0,0,0,0,0,0,0,0,0,0],"split_type":[0,0,0,0,0,0,0,0,0,0,0,0,0,0,0,0,0,0,0,0,0,0,0,0,0,0,0,0,0,0,0,0,0,0,0,0,0,0,0,0,0,0,0,0,0,0,0,0,0,0,0,0,0,0,0,0,0,0,0,0,0,0,0,0,0,0,0,0,0,0,0,0,0,0,0,0,0,0,0,0,0,0,0,0,0,0,0],"sum_hessian":[1.7166E4,5.482E3,1.1684E4,5.472E3,1E1,2.68E2,1.1416E4,4.923E3,5.49E2,8E0,2E0,7.3E1,1.95E2,1.0114E4,1.302E3,1.06E3,3.863E3,7E0,1E0,4.6E1,2.7E1,7.5E1,1.2E2,7.741E3,2.373E3,1.34E2,1.168E3,8.48E2,2.12E2,3.545E3,3.18E2,1E0,6E0,2E0,4.4E1,1.8E1,9E0,4.2E1,3.3E1,1.01E2,1.9E1,3.475E3,4.266E3,1.091E3,1.282E3,1.23E2,1.1E1,2.53E2,9.15E2,1.43E2,6.9E1,3.531E3,1.4E1,3.01E2,1.7E1,3E0,3E0,1E0,1E0,3E1,1.4E1,5E0,1.3E1,4E1,2E0,8E0,2.5E1,3.3E1,6.8E1,8E0,1.1E1,2.741E3,7.34E2,3E0,4.263E3,1.088E3,3E0,6.83E2,5.99E2,1.05E2,1.8E1,9E0,2E0,1.59E2,9.4E1,7.73E2,1.42E2],"tree_param":{"num_deleted":"0","num_feature":"8","num_nodes":"87","size_leaf_vector":"1"}},{"base_weights":[1.3398469E1,-1.0065759E3,4.8605353E2,-1.0110163E3,6.661839E2,8.4820685E2,4.7728912E2,-9.9903375E2,-5.4263977E1,9.648925E2,3.598346E2,9.662008E2,8.018256E2,4.6679852E2,5.5759106E2,-4.998918E1,-7.7421674E2,4.1253693E2,7.819272E1,-1.18104836E2,7.6580707E2,1.0368458E3,5.2068463E2,6.1838605E2,8.3235864E2,4.4478442E2,4.9542584E2,8.299989E2,5.235002E2,-1.1110474E1,-8.232059E2,-5.910535E0,2.8738825E1,7.9488807E0,-1.779095E1,5.511228E1,4.0613605E2,1.062063E3,1.8688802E2,2.2718896E2,6.62721E1,7.043183E2,1.9859215E2,1.2766633E3,8.086087E2,5.156751E2,4.202312E2,7.378892E2,4.8698987E2,8.9275397E2,3.9314178E2,5.0923502E2,1.0171212E3,-5.4227474E1,-3.0107748E1,2.482662E1,3.3736756E0,1.0240992E1,5.4404583E1,1.6674988E1,-2.6583862E0,-9.9722034E-1,3.0143757E1,1.7639704E1,4.0485603E1,-9.102332E0,1.4618652E1,6.840016E1,1.8215612E1,1.1867826E1,4.124376E1,2.742245E1,1.6475273E1,-1.2291929E1,2.1163267E1,7.3659053E0,3.948384E1,2.34287E1,2.823679E1,1.1900186E1,4.561352E1,1.5085002E0,2.5606052E1,2.6086683E1,1.0320541E1,2.432007E1,6.3597767E1],"categories":[],"categories_nodes":[],"categories_segments":[],"categories_sizes":[],"default_left":[0,0,0,0,0,0,0,0,0,0,0,0,0,0,0,0,0,0,0,0,0,0,0,0,0,0,0,0,0,0,0,0,0,0,0,0,0,0,0,0,0,0,0,0,0,0,0,0,0,0,0,0,0,0,0,0,0,0,0,0,0,0,0,0,0,0,0,0,0,0,0,0,0,0,0,0,0,0,0,0,0,0,0,0,0,0,0],"id":21,"left_children":[1,3,5,7,9,11,13,15,-1,17,19,21,23,25,27,-1,29,31,-1,33,35,37,39,41,43,45,47,49,51,-1,53,-1,-1,-1,-1,-1,55,57,59,61,-1,63,65,67,69,71,73,75,77,79,81,83,85,-1,-1,-1,-1,-1,-1,-1,-1,-1,-1,-1,-1,-1,-1,-1,-1,-1,-1,-1,-1,-1,-1,-1,-1,-1,-1,-1,-1,-1,-1,-1,-1,-1,-1],"loss_changes":[8.2790426E9,4.106547E7,3.684275E7,3.74272E6,1.025436E6,7.35744E5,9.39392E6,1.536E4,0E0,1.670732E6,1.8367179E6,1.757704E6,6.2788E5,6.171136E6,1.1814528E7,0E0,3.57924E5,4.98486E5,0E0,3.858994E5,1.5737425E5,1.130392E6,2.533188E6,1.050565E6,7.82656E5,9.779584E6,8.640512E6,3.6242E6,7.755936E6,0E0,3.86797E5,0E0,0E0,0E0,0E0,0E0,8.895269E4,1.11592E6,1.2331638E5,9.404699E5,0E0,7.14647E5,3.0310206E5,8.4957E4,1.346736E6,8.806784E6,8.735552E6,4.348968E6,5.82752E6,1.392952E6,8.482715E5,4.222208E6,3.709176E6,0E0,0E0,0E0,0E0,0E0,0E0,0E0,0E0,0E0,0E0,0E0,0E0,0E0,0E0,0E0,0E0,0E0,0E0,0E0,0E0,0E0,0E0,0E0,0E0,0E0,0E0,0E0,0E0,0E0,0E0,0E0,0E0,0E0,0E0],"parents":[2147483647,0,0,1,1,2,2,3,3,4,4,5,5,6,6,7,7,9,9,10,10,11,11,12,12,13,13,14,14,16,16,17,17,19,19,20,20,21,21,22,22,23,23,24,24,25,25,26,26,27,27,28,28,30,30,36,36,37,37,38,38,39,39,41,41,42,42,43,43,44,44,45,45,46,46,47,47,48,48,49,49,50,50,51,51,52,52],"right_children":[2,4,6,8,10,12,14,16,-1,18,20,22,24,26,28,-1,30,32,-1,34,36,38,40,42,44,46,48,50,52,-1,54,-1,-1,-1,-1,-1,56,58,60,62,-1,64,66,68,70,72,74,76,78,80,82,84,86,-1,-1,-1,-1,-1,-1,-1,-1,-1,-1,-1,-1,-1,-1,-1,-1,-1,-1,-1,-1,-1,-1,-1,-1,-1,-1,-1,-1,-1,-1,-1,-1,-1,-1],"split_conditions":[2.26E3,8E0,8E0,4.74E3,4.455E3,3E0,5.5466665E3,4.7183335E3,-5.4263977E1,1.3E1,4.975E3,6.77E3,5.2466665E3,5.03E3,1.4E1,-4.998918E1,1E0,4.8666666E2,7.819272E1,4.5866665E3,1.8E1,6.4083335E3,7E0,5.2016665E3,5.3583335E3,2.5016667E3,9E0,6.655E3,7.05E3,-1.1110474E1,5E0,-5.910535E0,2.8738825E1,7.9488807E0,-1.779095E1,5.511228E1,6E0,4.485E3,5E0,6.055E3,6.62721E1,5E0,4E0,5E0,5.3966665E3,4.745E3,2.535E3,3.1166666E2,7E0,9E0,5.8016665E3,6.555E3,1.7E1,-5.4227474E1,-3.0107748E1,2.482662E1,3.3736756E0,1.0240992E1,5.4404583E1,1.6674988E1,-2.6583862E0,-9.9722034E-1,3.0143757E1,1.7639704E1,4.0485603E1,-9.102332E0,1.4618652E1,6.840016E1,1.8215612E1,1.1867826E1,4.124376E1,2.742245E1,1.6475273E1,-1.2291929E1,2.1163267E1,7.3659053E0,3.948384E1,2.34287E1,2.823679E1,1.1900186E1,4.561352E1,1.5085002E0,2.5606052E1,2.6086683E1,1.0320541E1,2.432007E1,6.3597767E1],"split_indices":[5,0,0,6,6,0,6,6,0,0,6,5,6,5,0,0,0,6,0,6,0,6,2,6,6,6,0,5,5,0,2,0,0,0,0,0,1,5,1,6,0,2,1,1,6,5,6,6,2,0,6,6,0,0,0,0,0,0,0,0,0,0,0,0,0,0,0,0,0,0,0,0,0,0,0,0,0,0,0,0,0,0,0,0,0,0,0],"split_type":[0,0,0,0,0,0,0,0,0,0,0,0,0,0,0,0,0,0,0,0,0,0,0,0,0,0,0,0,0,0,0,0,0,0,0,0,0,0,0,0,0,0,0,0,0,0,0,0,0,0,0,0,0,0,0,0,0,0,0,0,0,0,0,0,0,0,0,0,0,0,0,0,0,0,0,0,0,0,0,0,0,0,0,0,0,0,0],"sum_hessian":[1.7171E4,5.437E3,1.1734E4,5.423E3,1.4E1,2.75E2,1.1459E4,4.682E3,7.41E2,6E0,8E0,7.2E1,2.03E2,1.0141E4,1.318E3,4.663E3,1.9E1,4E0,2E0,4E0,4E0,6.1E1,1.1E1,3.2E1,1.71E2,5.742E3,4.399E3,1.44E2,1.174E3,2E0,1.7E1,1E0,3E0,2E0,2E0,1E0,3E0,5.9E1,2E0,9E0,2E0,2.6E1,6E0,6E0,1.65E2,1.472E3,4.27E3,1.45E2,4.254E3,1.25E2,1.9E1,1.143E3,3.1E1,6E0,1.1E1,2E0,1E0,2E0,5.7E1,1E0,1E0,6E0,3E0,7E0,1.9E1,1E0,5E0,5E0,1E0,5E0,1.6E2,1.25E3,2.22E2,1.9E1,4.251E3,1.2E1,1.33E2,3.445E3,8.09E2,4E0,1.21E2,5E0,1.4E1,1.097E3,4.6E1,1.1E1,2E1],"tree_param":{"num_deleted":"0","num_feature":"8","num_nodes":"87","size_leaf_vector":"1"}},{"base_weights":[-3.4274298E-1,-8.731138E2,4.3482364E2,-9.586473E2,8.211354E2,4.183858E2,7.6887195E2,-9.4876434E2,-1.0198067E3,6.395745E2,8.5202997E2,4.2922253E2,3.8029163E2,-5.2597737E0,7.7234265E2,-9.501038E2,-7.371995E2,-9.8106445E2,-5.286205E1,7.291296E2,1.4543549E2,9.889712E2,7.6459216E2,6.619424E2,4.2729346E2,2.9949933E2,4.1067676E2,8.15725E2,7.004274E2,-4.7552567E1,-7.0703534E2,-4.5037838E1,-6.1981323E2,-1.0673121E3,-9.088371E2,6.4927637E2,7.0885376E1,3.5203476E2,-1.4917249E2,4.720817E0,1.00890875E3,6.653308E2,9.1223846E2,8.399139E2,3.1040314E1,3.5841125E2,4.339082E2,2.8323563E2,1.2436588E3,4.2435007E2,5.8632523E1,7.665329E2,1.0096959E3,4.972627E2,7.5504663E2,-4.8986248E1,-1.9907513E1,7.65795E0,-3.3095505E1,-2.2241688E1,-5.360807E1,-4.5679314E1,-1.3593551E1,3.6802654E1,5.359017E0,2.2540436E1,-1.0765259E0,6.3882446E0,-1.4203662E1,6.673885E1,4.7383133E1,3.440289E1,-4.9768068E-2,5.44628E1,3.3304653E1,5.4162354E0,5.0376587E1,-3.8360928E1,9.993932E0,1.869338E1,7.03435E-1,6.0321095E1,2.1566498E1,1.5857323E1,4.0882764E0,-3.3292644E-2,7.6012474E1,2.6315851E1,1.9501375E1,4.7427643E1,-6.463375E-1,4.2108612E1,3.3753975E1,3.7630257E1,6.8518486E1,3.1423456E1,1.0188552E1,3.0418634E1,4.260432E1],"categories":[],"categories_nodes":[],"categories_segments":[],"categories_sizes":[],"default_left":[0,0,0,0,0,0,0,0,0,0,0,0,0,0,0,0,0,0,0,0,0,0,0,0,0,0,0,0,0,0,0,0,0,0,0,0,0,0,0,0,0,0,0,0,0,0,0,0,0,0,0,0,0,0,0,0,0,0,0,0,0,0,0,0,0,0,0,0,0,0,0,0,0,0,0,0,0,0,0,0,0,0,0,0,0,0,0,0,0,0,0,0,0,0,0,0,0,0,0],"id":22,"left_children":[1,3,5,7,9,11,13,15,17,19,21,23,25,-1,27,29,31,33,-1,35,37,39,41,43,45,47,49,51,53,-1,55,-1,57,59,61,63,-1,65,67,-1,69,71,73,75,77,79,81,83,85,87,89,91,93,95,97,-1,-1,-1,-1,-1,-1,-1,-1,-1,-1,-1,-1,-1,-1,-1,-1,-1,-1,-1,-1,-1,-1,-1,-1,-1,-1,-1,-1,-1,-1,-1,-1,-1,-1,-1,-1,-1,-1,-1,-1,-1,-1,-1,-1],"loss_changes":[6.5192776E9,8.2839654E8,6.2572544E7,2.31936E6,9.976E5,4.344448E6,1.707232E6,6.30016E5,4.0384E4,1.841076E6,2.021792E6,3.529856E6,5.835008E6,0E0,1.094624E6,4.01152E5,9.4478E4,1.390944E6,0E0,1.113966E6,5.3944025E5,1.4564E6,1.532768E6,7.609144E6,3.683584E6,9.88988E6,8.451872E6,2.346208E6,1.932648E6,0E0,1.462977E6,0E0,8.49791E5,2.7168E4,3.95952E5,1.567554E6,0E0,1.9419875E5,1.8573084E5,0E0,4.31528E5,1.378752E6,1.714488E6,6.390116E6,2.3097775E6,3.954504E6,1.478208E7,4.462708E6,3.786866E6,5.726848E6,4.278959E6,1.264592E6,4.81038E6,1.681812E6,1.7874E6,0E0,0E0,0E0,0E0,0E0,0E0,0E0,0E0,0E0,0E0,0E0,0E0,0E0,0E0,0E0,0E0,0E0,0E0,0E0,0E0,0E0,0E0,0E0,0E0,0E0,0E0,0E0,0E0,0E0,0E0,0E0,0E0,0E0,0E0,0E0,0E0,0E0,0E0,0E0,0E0,0E0,0E0,0E0,0E0],"parents":[2147483647,0,0,1,1,2,2,3,3,4,4,5,5,6,6,7,7,8,8,9,9,10,10,11,11,12,12,14,14,15,15,16,16,17,17,19,19,20,20,21,21,22,22,23,23,24,24,25,25,26,26,27,27,28,28,30,30,32,32,33,33,34,34,35,35,37,37,38,38,40,40,41,41,42,42,43,43,44,44,45,45,46,46,47,47,48,48,49,49,50,50,51,51,52,52,53,53,54,54],"right_children":[2,4,6,8,10,12,14,16,18,20,22,24,26,-1,28,30,32,34,-1,36,38,40,42,44,46,48,50,52,54,-1,56,-1,58,60,62,64,-1,66,68,-1,70,72,74,76,78,80,82,84,86,88,90,92,94,96,98,-1,-1,-1,-1,-1,-1,-1,-1,-1,-1,-1,-1,-1,-1,-1,-1,-1,-1,-1,-1,-1,-1,-1,-1,-1,-1,-1,-1,-1,-1,-1,-1,-1,-1,-1,-1,-1,-1,-1,-1,-1,-1,-1,-1],"split_conditions":[8E0,5.3839585E3,5.3839585E3,4.7533335E3,5.3116665E3,2.1E1,9E0,3.9014583E3,3.4914583E3,5.2016665E3,5.7233335E3,1E1,4.43E3,-5.2597737E0,5.955E3,4.7183335E3,1.485E3,5.095E3,-5.286205E1,5.67E3,5.7541665E3,4.365E3,6.35E3,5.05E2,7.15E2,5.93E3,7.015E3,7E0,5.6966665E3,-4.7552567E1,3.975E3,-4.5037838E1,1.9816666E3,3.0170833E3,3.49E3,5.365E3,7.0885376E1,5.57E3,2E0,4.720817E0,5.3583335E3,6.29E3,7.015E3,9E0,5.783333E2,6.85E2,4.0666666E2,4.3466665E3,4E0,4.27E3,3.3320833E3,5.59E3,5.505E3,6.48E3,6.42E3,-4.8986248E1,-1.9907513E1,7.65795E0,-3.3095505E1,-2.2241688E1,-5.360807E1,-4.5679314E1,-1.3593551E1,3.6802654E1,5.359017E0,2.2540436E1,-1.0765259E0,6.3882446E0,-1.4203662E1,6.673885E1,4.7383133E1,3.440289E1,-4.9768068E-2,5.44628E1,3.3304653E1,5.4162354E0,5.0376587E1,-3.8360928E1,9.993932E0,1.869338E1,7.03435E-1,6.0321095E1,2.1566498E1,1.5857323E1,4.0882764E0,-3.3292644E-2,7.6012474E1,2.6315851E1,1.9501375E1,4.7427643E1,-6.463375E-1,4.2108612E1,3.3753975E1,3.7630257E1,6.8518486E1,3.1423456E1,1.0188552E1,3.0418634E1,4.260432E1],"split_indices":[0,7,7,6,6,0,0,7,7,6,6,4,6,0,4,6,6,6,0,4,7,4,4,6,4,4,4,2,6,0,4,0,6,7,7,4,0,4,0,0,6,4,4,0,6,4,6,6,2,4,7,6,4,4,4,0,0,0,0,0,0,0,0,0,0,0,0,0,0,0,0,0,0,0,0,0,0,0,0,0,0,0,0,0,0,0,0,0,0,0,0,0,0,0,0,0,0,0,0],"split_type":[0,0,0,0,0,0,0,0,0,0,0,0,0,0,0,0,0,0,0,0,0,0,0,0,0,0,0,0,0,0,0,0,0,0,0,0,0,0,0,0,0,0,0,0,0,0,0,0,0,0,0,0,0,0,0,0,0,0,0,0,0,0,0,0,0,0,0,0,0,0,0,0,0,0,0,0,0,0,0,0,0,0,0,0,0,0,0,0,0,0,0,0,0,0,0,0,0,0,0],"sum_hessian":[1.7163E4,5.71E3,1.1453E4,5.436E3,2.74E2,1.0918E4,5.35E2,4.694E3,7.42E2,4.3E1,2.31E2,8.492E3,2.426E3,2E0,5.33E2,4.661E3,3.3E1,3.78E2,3.64E2,3.6E1,7E0,8.6E1,1.45E2,6.7E1,8.425E3,6.66E2,1.76E3,3.26E2,2.07E2,4.64E3,2.1E1,1.1E1,2.2E1,1.66E2,2.12E2,3.4E1,2E0,4E0,3E0,2E0,8.4E1,9E1,5.5E1,5.2E1,1.5E1,7.43E2,7.682E3,6.56E2,1E1,1.694E3,6.6E1,2.64E2,6.2E1,4.6E1,1.61E2,1E1,1.1E1,1E0,2.1E1,2E0,1.64E2,2.1E2,2E0,2.9E1,5E0,3E0,1E0,1E0,2E0,1E1,7.4E1,8.7E1,3E0,3E1,2.5E1,1E1,4.2E1,2E0,1.3E1,7.11E2,3.2E1,2.4E1,7.658E3,5.61E2,9.5E1,2E0,8E0,4.23E2,1.271E3,4E0,6.2E1,1.4E2,1.24E2,3.8E1,2.4E1,3.1E1,1.5E1,6.7E1,9.4E1],"tree_param":{"num_deleted":"0","num_feature":"8","num_nodes":"99","size_leaf_vector":"1"}},{"base_weights":[-1.6718138E0,-9.118346E2,4.270293E2,-9.152219E2,-6.315105E2,4.0256052E2,7.575721E2,-9.156326E2,3.2978584E1,8.2401056E2,-7.5809827E2,4.42626E2,3.8757425E2,9.203624E2,7.3264325E2,-9.053187E2,-9.6935864E2,1.1247421E3,-1.6991179E1,-8.348345E2,5.402415E1,4.4435855E2,-6.6949725E2,4.0870267E2,3.671441E2,7.206787E1,9.450906E2,3.4756363E2,7.4574243E2,-4.531353E1,-7.182391E2,-9.443591E2,-1.0500273E3,6.770071E1,5.1913576E0,-4.364819E2,-9.3161206E2,4.150331E2,5.1978687E2,-3.8987343E1,-5.712476E0,3.9866724E2,5.577588E2,3.1142007E2,4.0082675E2,1.2695443E1,-1.1836377E1,8.3214667E2,1.1310679E3,4.4712854E2,-2.869342E2,1.1600072E3,7.3718414E2,-3.8973415E1,-2.3386631E1,-4.8546E1,-4.4047523E1,-1.2968732E1,-5.2638294E1,3.2678742E0,-2.8964437E1,-4.7404026E1,-3.5281677E0,1.874088E1,2.7487263E1,3.6349606E1,2.3216408E1,1.9052856E1,2.4091955E1,3.5375042E1,1.355456E1,1.7752457E1,1.1615069E1,2.4288166E1,1.7588007E1,4.667184E1,2.7625376E1,7.025948E1,4.1313564E1,2.102225E0,2.9820362E1,-2.1719336E1,-4.6493897E0,2.8671265E0,6.2751827E1,4.464381E1,3.5678413E1],"categories":[],"categories_nodes":[],"categories_segments":[],"categories_sizes":[],"default_left":[0,0,0,0,0,0,0,0,0,0,0,0,0,0,0,0,0,0,0,0,0,0,0,0,0,0,0,0,0,0,0,0,0,0,0,0,0,0,0,0,0,0,0,0,0,0,0,0,0,0,0,0,0,0,0,0,0,0,0,0,0,0,0,0,0,0,0,0,0,0,0,0,0,0,0,0,0,0,0,0,0,0,0,0,0,0,0],"id":23,"left_children":[1,3,5,7,9,11,13,15,-1,17,19,21,23,25,27,29,31,33,-1,35,-1,37,39,41,43,45,47,49,51,-1,53,55,57,-1,-1,59,61,63,65,-1,-1,67,69,71,73,-1,-1,75,77,79,81,83,85,-1,-1,-1,-1,-1,-1,-1,-1,-1,-1,-1,-1,-1,-1,-1,-1,-1,-1,-1,-1,-1,-1,-1,-1,-1,-1,-1,-1,-1,-1,-1,-1,-1,-1],"loss_changes":[6.71318E9,4.653056E6,9.42921E7,4.123136E6,1.3338008E7,6.368256E6,2.592544E6,2.136576E6,0E0,2.4822238E6,9.931516E6,5.997056E6,3.275136E6,2.092488E6,3.286912E6,1.64608E5,7.46816E5,1.029752E6,0E0,1.983568E6,0E0,6.3184E6,2.169935E5,5.599424E6,7.465536E6,2.8471388E5,1.159296E6,1.7076392E6,1.55216E6,0E0,6.489E4,2.69696E5,1.49152E5,0E0,0E0,1.04118675E6,6.27928E5,1.1344096E7,9.119824E6,0E0,0E0,5.162368E6,1.0239264E7,5.191984E6,1.0318848E7,0E0,0E0,1.3537E6,1.763228E6,1.305274E6,7.399891E4,1.185459E6,1.818976E6,0E0,0E0,0E0,0E0,0E0,0E0,0E0,0E0,0E0,0E0,0E0,0E0,0E0,0E0,0E0,0E0,0E0,0E0,0E0,0E0,0E0,0E0,0E0,0E0,0E0,0E0,0E0,0E0,0E0,0E0,0E0,0E0,0E0,0E0],"parents":[2147483647,0,0,1,1,2,2,3,3,4,4,5,5,6,6,7,7,9,9,10,10,11,11,12,12,13,13,14,14,15,15,16,16,17,17,19,19,21,21,22,22,23,23,24,24,25,25,26,26,27,27,28,28,30,30,31,31,32,32,35,35,36,36,37,37,38,38,41,41,42,42,43,43,44,44,47,47,48,48,49,49,50,50,51,51,52,52],"right_children":[2,4,6,8,10,12,14,16,-1,18,20,22,24,26,28,30,32,34,-1,36,-1,38,40,42,44,46,48,50,52,-1,54,56,58,-1,-1,60,62,64,66,-1,-1,68,70,72,74,-1,-1,76,78,80,82,84,86,-1,-1,-1,-1,-1,-1,-1,-1,-1,-1,-1,-1,-1,-1,-1,-1,-1,-1,-1,-1,-1,-1,-1,-1,-1,-1,-1,-1,-1,-1,-1,-1,-1,-1],"split_conditions":[2.26E3,1.725E3,5.3839585E3,5.3839585E3,3.2316667E3,3.67E3,4.88E3,4.5866665E3,3.2978584E1,6E0,5.3116665E3,5.8333335E3,3.4389583E3,4.7533335E3,4.995E3,3.9014583E3,9.7E2,6.055E3,-1.6991179E1,5E0,5.402415E1,3.499375E3,6E0,3.425625E3,4.65E3,1E0,5.9283335E3,6.32E3,4.8683335E3,-4.531353E1,3.3266667E3,6.1E2,3.0170833E3,6.770071E1,5.1913576E0,7E2,6.23E3,3.375E3,4.16E3,-3.8987343E1,-5.712476E0,5.1216665E3,5.41E3,4.14E3,5.37E3,1.2695443E1,-1.1836377E1,5.745E3,6.1E3,1E0,6.48E3,4E0,5.225E3,-3.8973415E1,-2.3386631E1,-4.8546E1,-4.4047523E1,-1.2968732E1,-5.2638294E1,3.2678742E0,-2.8964437E1,-4.7404026E1,-3.5281677E0,1.874088E1,2.7487263E1,3.6349606E1,2.3216408E1,1.9052856E1,2.4091955E1,3.5375042E1,1.355456E1,1.7752457E1,1.1615069E1,2.4288166E1,1.7588007E1,4.667184E1,2.7625376E1,7.025948E1,4.1313564E1,2.102225E0,2.9820362E1,-2.1719336E1,-4.6493897E0,2.8671265E0,6.2751827E1,4.464381E1,3.5678413E1],"split_indices":[5,5,7,7,7,4,5,6,0,1,6,6,7,6,5,7,5,4,0,2,0,7,1,7,5,1,6,4,6,0,6,5,7,0,0,6,4,4,5,0,0,6,4,5,5,0,0,6,6,1,4,2,5,0,0,0,0,0,0,0,0,0,0,0,0,0,0,0,0,0,0,0,0,0,0,0,0,0,0,0,0,0,0,0,0,0,0],"split_type":[0,0,0,0,0,0,0,0,0,0,0,0,0,0,0,0,0,0,0,0,0,0,0,0,0,0,0,0,0,0,0,0,0,0,0,0,0,0,0,0,0,0,0,0,0,0,0,0,0,0,0,0,0,0,0,0,0,0,0,0,0,0,0,0,0,0,0,0,0,0,0,0,0,0,0,0,0,0,0,0,0,0,0,0,0,0,0],"sum_hessian":[1.7203E4,5.508E3,1.1695E4,5.44E3,6.8E1,1.0891E4,8.04E2,5.439E3,1E0,5E0,6.3E1,2.957E3,7.934E3,1.02E2,7.02E2,4.578E3,8.61E2,4E0,1E0,6.1E1,2E0,2.953E3,4E0,3.891E3,4.043E3,3E0,9.9E1,2.4E1,6.78E2,4.551E3,2.7E1,6.67E2,1.94E2,3E0,1E0,1.3E1,4.8E1,2.131E3,8.22E2,3E0,1E0,3.649E3,2.42E2,1.527E3,2.516E3,2E0,1E0,6.5E1,3.4E1,2.1E1,3E0,1.1E1,6.67E2,2E1,7E0,4.6E2,2.07E2,1E0,1.93E2,3E0,1E1,4.7E1,1E0,1.644E3,4.87E2,1.71E2,6.51E2,3.016E3,6.33E2,1.58E2,8.4E1,9.82E2,5.45E2,9.18E2,1.598E3,4.6E1,1.9E1,1.6E1,1.8E1,6E0,1.5E1,1E0,2E0,1E0,1E1,8.3E1,5.84E2],"tree_param":{"num_deleted":"0","num_feature":"8","num_nodes":"87","size_leaf_vector":"1"}},{"base_weights":[3.4331129E0,-8.664451E2,4.0867493E2,-8.6913165E2,-6.295957E2,3.8604645E2,7.109033E2,-8.570362E2,-9.458329E2,-6.993194E2,5.222336E1,4.2535605E2,3.7064554E2,6.8340497E2,8.178664E2,-8.5799945E2,-6.139992E2,-9.2046423E2,-4.9865883E1,3.322644E2,-7.3858875E2,4.1334354E2,6.148084E2,3.513025E2,4.221262E2,7.2253296E2,6.072907E2,6.432609E2,9.0652594E2,-8.5917645E2,-6.608886E2,-4.417089E1,-4.29376E2,-4.624234E1,-6.1323376E2,2.1356153E1,3.563678E0,-2.26462E2,-7.9033966E2,4.0704596E2,6.850599E2,7.2777606E2,1.0498436E2,3.4806522E1,3.5544452E2,5.676857E2,3.9577808E2,6.9769495E2,1.0797322E3,5.603799E2,9.2402966E2,7.710571E2,2.7126465E1,6.010225E2,9.7133826E2,-4.520889E1,-4.2739452E1,-4.1377453E1,-2.3257795E1,-2.5054081E1,1.43625555E1,-3.35072E1,-2.5260468E0,2.9943054E1,-3.3818172E1,-4.2633713E1,-1.20545845E1,